digraph Tree {
node [shape=box] ;
0 [label="X[2] <= 0.423\ngini = 0.5\nsamples = 16426\nvalue = [8213, 8213]"] ;
1 [label="X[1] <= 1.323\ngini = 0.453\nsamples = 11749\nvalue = [7669, 4080]"] ;
0 -> 1 [labeldistance=2.5, labelangle=45, headlabel="True"] ;
2 [label="X[0] <= 1.16\ngini = 0.341\nsamples = 9442\nvalue = [7385, 2057]"] ;
1 -> 2 ;
3 [label="X[1] <= -0.159\ngini = 0.247\nsamples = 8090\nvalue = [6921, 1169]"] ;
2 -> 3 ;
4 [label="X[1] <= -0.899\ngini = 0.335\nsamples = 5505\nvalue = [4336, 1169]"] ;
3 -> 4 ;
5 [label="gini = 0.0\nsamples = 1663\nvalue = [1663, 0]"] ;
4 -> 5 ;
6 [label="X[0] <= -0.807\ngini = 0.423\nsamples = 3842\nvalue = [2673, 1169]"] ;
4 -> 6 ;
7 [label="X[0] <= -1.369\ngini = 0.497\nsamples = 863\nvalue = [464, 399]"] ;
6 -> 7 ;
8 [label="X[0] <= -1.657\ngini = 0.41\nsamples = 642\nvalue = [457, 185]"] ;
7 -> 8 ;
9 [label="X[2] <= -0.061\ngini = 0.108\nsamples = 35\nvalue = [2, 33]"] ;
8 -> 9 ;
10 [label="gini = 0.0\nsamples = 28\nvalue = [0, 28]"] ;
9 -> 10 ;
11 [label="X[2] <= -0.03\ngini = 0.408\nsamples = 7\nvalue = [2, 5]"] ;
9 -> 11 ;
12 [label="gini = 0.0\nsamples = 1\nvalue = [1, 0]"] ;
11 -> 12 ;
13 [label="X[0] <= -1.664\ngini = 0.278\nsamples = 6\nvalue = [1, 5]"] ;
11 -> 13 ;
14 [label="gini = 0.0\nsamples = 4\nvalue = [0, 4]"] ;
13 -> 14 ;
15 [label="X[2] <= 0.158\ngini = 0.5\nsamples = 2\nvalue = [1, 1]"] ;
13 -> 15 ;
16 [label="gini = 0.0\nsamples = 1\nvalue = [0, 1]"] ;
15 -> 16 ;
17 [label="gini = 0.0\nsamples = 1\nvalue = [1, 0]"] ;
15 -> 17 ;
18 [label="X[2] <= -0.223\ngini = 0.375\nsamples = 607\nvalue = [455, 152]"] ;
8 -> 18 ;
19 [label="X[2] <= -0.294\ngini = 0.49\nsamples = 126\nvalue = [72, 54]"] ;
18 -> 19 ;
20 [label="X[2] <= -0.297\ngini = 0.337\nsamples = 14\nvalue = [3, 11]"] ;
19 -> 20 ;
21 [label="gini = 0.0\nsamples = 5\nvalue = [0, 5]"] ;
20 -> 21 ;
22 [label="X[2] <= -0.295\ngini = 0.444\nsamples = 9\nvalue = [3, 6]"] ;
20 -> 22 ;
23 [label="X[0] <= -1.643\ngini = 0.375\nsamples = 4\nvalue = [3, 1]"] ;
22 -> 23 ;
24 [label="gini = 0.0\nsamples = 1\nvalue = [0, 1]"] ;
23 -> 24 ;
25 [label="gini = 0.0\nsamples = 3\nvalue = [3, 0]"] ;
23 -> 25 ;
26 [label="gini = 0.0\nsamples = 5\nvalue = [0, 5]"] ;
22 -> 26 ;
27 [label="X[0] <= -1.566\ngini = 0.473\nsamples = 112\nvalue = [69, 43]"] ;
19 -> 27 ;
28 [label="X[0] <= -1.622\ngini = 0.38\nsamples = 55\nvalue = [41, 14]"] ;
27 -> 28 ;
29 [label="X[2] <= -0.277\ngini = 0.472\nsamples = 21\nvalue = [13, 8]"] ;
28 -> 29 ;
30 [label="X[2] <= -0.285\ngini = 0.32\nsamples = 5\nvalue = [1, 4]"] ;
29 -> 30 ;
31 [label="gini = 0.0\nsamples = 1\nvalue = [1, 0]"] ;
30 -> 31 ;
32 [label="gini = 0.0\nsamples = 4\nvalue = [0, 4]"] ;
30 -> 32 ;
33 [label="X[2] <= -0.227\ngini = 0.375\nsamples = 16\nvalue = [12, 4]"] ;
29 -> 33 ;
34 [label="X[2] <= -0.245\ngini = 0.32\nsamples = 15\nvalue = [12, 3]"] ;
33 -> 34 ;
35 [label="X[2] <= -0.252\ngini = 0.42\nsamples = 10\nvalue = [7, 3]"] ;
34 -> 35 ;
36 [label="X[2] <= -0.267\ngini = 0.346\nsamples = 9\nvalue = [7, 2]"] ;
35 -> 36 ;
37 [label="gini = 0.0\nsamples = 3\nvalue = [3, 0]"] ;
36 -> 37 ;
38 [label="X[2] <= -0.261\ngini = 0.444\nsamples = 6\nvalue = [4, 2]"] ;
36 -> 38 ;
39 [label="X[2] <= -0.265\ngini = 0.444\nsamples = 3\nvalue = [1, 2]"] ;
38 -> 39 ;
40 [label="gini = 0.0\nsamples = 1\nvalue = [0, 1]"] ;
39 -> 40 ;
41 [label="X[0] <= -1.64\ngini = 0.5\nsamples = 2\nvalue = [1, 1]"] ;
39 -> 41 ;
42 [label="gini = 0.0\nsamples = 1\nvalue = [0, 1]"] ;
41 -> 42 ;
43 [label="gini = 0.0\nsamples = 1\nvalue = [1, 0]"] ;
41 -> 43 ;
44 [label="gini = 0.0\nsamples = 3\nvalue = [3, 0]"] ;
38 -> 44 ;
45 [label="gini = 0.0\nsamples = 1\nvalue = [0, 1]"] ;
35 -> 45 ;
46 [label="gini = 0.0\nsamples = 5\nvalue = [5, 0]"] ;
34 -> 46 ;
47 [label="gini = 0.0\nsamples = 1\nvalue = [0, 1]"] ;
33 -> 47 ;
48 [label="X[2] <= -0.235\ngini = 0.291\nsamples = 34\nvalue = [28, 6]"] ;
28 -> 48 ;
49 [label="X[0] <= -1.601\ngini = 0.238\nsamples = 29\nvalue = [25, 4]"] ;
48 -> 49 ;
50 [label="gini = 0.0\nsamples = 9\nvalue = [9, 0]"] ;
49 -> 50 ;
51 [label="X[2] <= -0.27\ngini = 0.32\nsamples = 20\nvalue = [16, 4]"] ;
49 -> 51 ;
52 [label="X[2] <= -0.283\ngini = 0.444\nsamples = 9\nvalue = [6, 3]"] ;
51 -> 52 ;
53 [label="gini = 0.0\nsamples = 3\nvalue = [3, 0]"] ;
52 -> 53 ;
54 [label="X[0] <= -1.587\ngini = 0.5\nsamples = 6\nvalue = [3, 3]"] ;
52 -> 54 ;
55 [label="gini = 0.0\nsamples = 2\nvalue = [2, 0]"] ;
54 -> 55 ;
56 [label="X[2] <= -0.275\ngini = 0.375\nsamples = 4\nvalue = [1, 3]"] ;
54 -> 56 ;
57 [label="gini = 0.0\nsamples = 2\nvalue = [0, 2]"] ;
56 -> 57 ;
58 [label="X[0] <= -1.577\ngini = 0.5\nsamples = 2\nvalue = [1, 1]"] ;
56 -> 58 ;
59 [label="gini = 0.0\nsamples = 1\nvalue = [1, 0]"] ;
58 -> 59 ;
60 [label="gini = 0.0\nsamples = 1\nvalue = [0, 1]"] ;
58 -> 60 ;
61 [label="X[0] <= -1.591\ngini = 0.165\nsamples = 11\nvalue = [10, 1]"] ;
51 -> 61 ;
62 [label="gini = 0.0\nsamples = 1\nvalue = [0, 1]"] ;
61 -> 62 ;
63 [label="gini = 0.0\nsamples = 10\nvalue = [10, 0]"] ;
61 -> 63 ;
64 [label="X[2] <= -0.227\ngini = 0.48\nsamples = 5\nvalue = [3, 2]"] ;
48 -> 64 ;
65 [label="X[2] <= -0.231\ngini = 0.444\nsamples = 3\nvalue = [1, 2]"] ;
64 -> 65 ;
66 [label="gini = 0.0\nsamples = 1\nvalue = [0, 1]"] ;
65 -> 66 ;
67 [label="X[2] <= -0.229\ngini = 0.5\nsamples = 2\nvalue = [1, 1]"] ;
65 -> 67 ;
68 [label="gini = 0.0\nsamples = 1\nvalue = [1, 0]"] ;
67 -> 68 ;
69 [label="gini = 0.0\nsamples = 1\nvalue = [0, 1]"] ;
67 -> 69 ;
70 [label="gini = 0.0\nsamples = 2\nvalue = [2, 0]"] ;
64 -> 70 ;
71 [label="X[0] <= -1.482\ngini = 0.5\nsamples = 57\nvalue = [28, 29]"] ;
27 -> 71 ;
72 [label="X[0] <= -1.559\ngini = 0.18\nsamples = 10\nvalue = [1, 9]"] ;
71 -> 72 ;
73 [label="X[2] <= -0.252\ngini = 0.5\nsamples = 2\nvalue = [1, 1]"] ;
72 -> 73 ;
74 [label="gini = 0.0\nsamples = 1\nvalue = [0, 1]"] ;
73 -> 74 ;
75 [label="gini = 0.0\nsamples = 1\nvalue = [1, 0]"] ;
73 -> 75 ;
76 [label="gini = 0.0\nsamples = 8\nvalue = [0, 8]"] ;
72 -> 76 ;
77 [label="X[0] <= -1.394\ngini = 0.489\nsamples = 47\nvalue = [27, 20]"] ;
71 -> 77 ;
78 [label="X[2] <= -0.268\ngini = 0.474\nsamples = 44\nvalue = [27, 17]"] ;
77 -> 78 ;
79 [label="X[2] <= -0.284\ngini = 0.26\nsamples = 13\nvalue = [11, 2]"] ;
78 -> 79 ;
80 [label="X[2] <= -0.287\ngini = 0.444\nsamples = 6\nvalue = [4, 2]"] ;
79 -> 80 ;
81 [label="X[2] <= -0.291\ngini = 0.32\nsamples = 5\nvalue = [4, 1]"] ;
80 -> 81 ;
82 [label="X[2] <= -0.293\ngini = 0.5\nsamples = 2\nvalue = [1, 1]"] ;
81 -> 82 ;
83 [label="gini = 0.0\nsamples = 1\nvalue = [1, 0]"] ;
82 -> 83 ;
84 [label="gini = 0.0\nsamples = 1\nvalue = [0, 1]"] ;
82 -> 84 ;
85 [label="gini = 0.0\nsamples = 3\nvalue = [3, 0]"] ;
81 -> 85 ;
86 [label="gini = 0.0\nsamples = 1\nvalue = [0, 1]"] ;
80 -> 86 ;
87 [label="gini = 0.0\nsamples = 7\nvalue = [7, 0]"] ;
79 -> 87 ;
88 [label="X[2] <= -0.237\ngini = 0.499\nsamples = 31\nvalue = [16, 15]"] ;
78 -> 88 ;
89 [label="X[2] <= -0.264\ngini = 0.465\nsamples = 19\nvalue = [7, 12]"] ;
88 -> 89 ;
90 [label="gini = 0.0\nsamples = 2\nvalue = [0, 2]"] ;
89 -> 90 ;
91 [label="X[2] <= -0.254\ngini = 0.484\nsamples = 17\nvalue = [7, 10]"] ;
89 -> 91 ;
92 [label="X[0] <= -1.411\ngini = 0.444\nsamples = 6\nvalue = [4, 2]"] ;
91 -> 92 ;
93 [label="X[2] <= -0.262\ngini = 0.32\nsamples = 5\nvalue = [4, 1]"] ;
92 -> 93 ;
94 [label="X[2] <= -0.263\ngini = 0.5\nsamples = 2\nvalue = [1, 1]"] ;
93 -> 94 ;
95 [label="gini = 0.0\nsamples = 1\nvalue = [1, 0]"] ;
94 -> 95 ;
96 [label="gini = 0.0\nsamples = 1\nvalue = [0, 1]"] ;
94 -> 96 ;
97 [label="gini = 0.0\nsamples = 3\nvalue = [3, 0]"] ;
93 -> 97 ;
98 [label="gini = 0.0\nsamples = 1\nvalue = [0, 1]"] ;
92 -> 98 ;
99 [label="X[0] <= -1.454\ngini = 0.397\nsamples = 11\nvalue = [3, 8]"] ;
91 -> 99 ;
100 [label="gini = 0.0\nsamples = 3\nvalue = [0, 3]"] ;
99 -> 100 ;
101 [label="X[0] <= -1.426\ngini = 0.469\nsamples = 8\nvalue = [3, 5]"] ;
99 -> 101 ;
102 [label="X[2] <= -0.245\ngini = 0.48\nsamples = 5\nvalue = [3, 2]"] ;
101 -> 102 ;
103 [label="X[2] <= -0.251\ngini = 0.444\nsamples = 3\nvalue = [1, 2]"] ;
102 -> 103 ;
104 [label="gini = 0.0\nsamples = 1\nvalue = [0, 1]"] ;
103 -> 104 ;
105 [label="X[2] <= -0.247\ngini = 0.5\nsamples = 2\nvalue = [1, 1]"] ;
103 -> 105 ;
106 [label="gini = 0.0\nsamples = 1\nvalue = [1, 0]"] ;
105 -> 106 ;
107 [label="gini = 0.0\nsamples = 1\nvalue = [0, 1]"] ;
105 -> 107 ;
108 [label="gini = 0.0\nsamples = 2\nvalue = [2, 0]"] ;
102 -> 108 ;
109 [label="gini = 0.0\nsamples = 3\nvalue = [0, 3]"] ;
101 -> 109 ;
110 [label="X[0] <= -1.404\ngini = 0.375\nsamples = 12\nvalue = [9, 3]"] ;
88 -> 110 ;
111 [label="X[2] <= -0.233\ngini = 0.298\nsamples = 11\nvalue = [9, 2]"] ;
110 -> 111 ;
112 [label="gini = 0.0\nsamples = 5\nvalue = [5, 0]"] ;
111 -> 112 ;
113 [label="X[2] <= -0.233\ngini = 0.444\nsamples = 6\nvalue = [4, 2]"] ;
111 -> 113 ;
114 [label="gini = 0.0\nsamples = 1\nvalue = [0, 1]"] ;
113 -> 114 ;
115 [label="X[0] <= -1.457\ngini = 0.32\nsamples = 5\nvalue = [4, 1]"] ;
113 -> 115 ;
116 [label="gini = 0.0\nsamples = 1\nvalue = [0, 1]"] ;
115 -> 116 ;
117 [label="gini = 0.0\nsamples = 4\nvalue = [4, 0]"] ;
115 -> 117 ;
118 [label="gini = 0.0\nsamples = 1\nvalue = [0, 1]"] ;
110 -> 118 ;
119 [label="gini = 0.0\nsamples = 3\nvalue = [0, 3]"] ;
77 -> 119 ;
120 [label="X[0] <= -1.559\ngini = 0.324\nsamples = 481\nvalue = [383, 98]"] ;
18 -> 120 ;
121 [label="X[0] <= -1.636\ngini = 0.222\nsamples = 236\nvalue = [206, 30]"] ;
120 -> 121 ;
122 [label="X[2] <= -0.199\ngini = 0.332\nsamples = 38\nvalue = [30, 8]"] ;
121 -> 122 ;
123 [label="gini = 0.0\nsamples = 5\nvalue = [5, 0]"] ;
122 -> 123 ;
124 [label="X[2] <= -0.139\ngini = 0.367\nsamples = 33\nvalue = [25, 8]"] ;
122 -> 124 ;
125 [label="X[2] <= -0.173\ngini = 0.375\nsamples = 4\nvalue = [1, 3]"] ;
124 -> 125 ;
126 [label="X[2] <= -0.198\ngini = 0.5\nsamples = 2\nvalue = [1, 1]"] ;
125 -> 126 ;
127 [label="gini = 0.0\nsamples = 1\nvalue = [0, 1]"] ;
126 -> 127 ;
128 [label="gini = 0.0\nsamples = 1\nvalue = [1, 0]"] ;
126 -> 128 ;
129 [label="gini = 0.0\nsamples = 2\nvalue = [0, 2]"] ;
125 -> 129 ;
130 [label="X[2] <= -0.016\ngini = 0.285\nsamples = 29\nvalue = [24, 5]"] ;
124 -> 130 ;
131 [label="gini = 0.0\nsamples = 9\nvalue = [9, 0]"] ;
130 -> 131 ;
132 [label="X[2] <= 0.005\ngini = 0.375\nsamples = 20\nvalue = [15, 5]"] ;
130 -> 132 ;
133 [label="gini = 0.0\nsamples = 1\nvalue = [0, 1]"] ;
132 -> 133 ;
134 [label="X[2] <= 0.096\ngini = 0.332\nsamples = 19\nvalue = [15, 4]"] ;
132 -> 134 ;
135 [label="gini = 0.0\nsamples = 5\nvalue = [5, 0]"] ;
134 -> 135 ;
136 [label="X[2] <= 0.165\ngini = 0.408\nsamples = 14\nvalue = [10, 4]"] ;
134 -> 136 ;
137 [label="X[2] <= 0.115\ngini = 0.444\nsamples = 3\nvalue = [1, 2]"] ;
136 -> 137 ;
138 [label="gini = 0.0\nsamples = 1\nvalue = [0, 1]"] ;
137 -> 138 ;
139 [label="X[2] <= 0.144\ngini = 0.5\nsamples = 2\nvalue = [1, 1]"] ;
137 -> 139 ;
140 [label="gini = 0.0\nsamples = 1\nvalue = [1, 0]"] ;
139 -> 140 ;
141 [label="gini = 0.0\nsamples = 1\nvalue = [0, 1]"] ;
139 -> 141 ;
142 [label="X[2] <= 0.257\ngini = 0.298\nsamples = 11\nvalue = [9, 2]"] ;
136 -> 142 ;
143 [label="gini = 0.0\nsamples = 4\nvalue = [4, 0]"] ;
142 -> 143 ;
144 [label="X[2] <= 0.314\ngini = 0.408\nsamples = 7\nvalue = [5, 2]"] ;
142 -> 144 ;
145 [label="X[0] <= -1.643\ngini = 0.444\nsamples = 3\nvalue = [1, 2]"] ;
144 -> 145 ;
146 [label="gini = 0.0\nsamples = 2\nvalue = [0, 2]"] ;
145 -> 146 ;
147 [label="gini = 0.0\nsamples = 1\nvalue = [1, 0]"] ;
145 -> 147 ;
148 [label="gini = 0.0\nsamples = 4\nvalue = [4, 0]"] ;
144 -> 148 ;
149 [label="X[2] <= -0.217\ngini = 0.198\nsamples = 198\nvalue = [176, 22]"] ;
121 -> 149 ;
150 [label="X[2] <= -0.219\ngini = 0.5\nsamples = 2\nvalue = [1, 1]"] ;
149 -> 150 ;
151 [label="gini = 0.0\nsamples = 1\nvalue = [1, 0]"] ;
150 -> 151 ;
152 [label="gini = 0.0\nsamples = 1\nvalue = [0, 1]"] ;
150 -> 152 ;
153 [label="X[2] <= 0.223\ngini = 0.191\nsamples = 196\nvalue = [175, 21]"] ;
149 -> 153 ;
154 [label="X[2] <= 0.191\ngini = 0.212\nsamples = 174\nvalue = [153, 21]"] ;
153 -> 154 ;
155 [label="X[2] <= -0.025\ngini = 0.172\nsamples = 168\nvalue = [152, 16]"] ;
154 -> 155 ;
156 [label="X[2] <= -0.027\ngini = 0.219\nsamples = 96\nvalue = [84, 12]"] ;
155 -> 156 ;
157 [label="X[2] <= -0.097\ngini = 0.205\nsamples = 95\nvalue = [84, 11]"] ;
156 -> 157 ;
158 [label="X[0] <= -1.601\ngini = 0.105\nsamples = 54\nvalue = [51, 3]"] ;
157 -> 158 ;
159 [label="X[0] <= -1.608\ngini = 0.219\nsamples = 24\nvalue = [21, 3]"] ;
158 -> 159 ;
160 [label="X[2] <= -0.188\ngini = 0.1\nsamples = 19\nvalue = [18, 1]"] ;
159 -> 160 ;
161 [label="X[2] <= -0.191\ngini = 0.375\nsamples = 4\nvalue = [3, 1]"] ;
160 -> 161 ;
162 [label="gini = 0.0\nsamples = 3\nvalue = [3, 0]"] ;
161 -> 162 ;
163 [label="gini = 0.0\nsamples = 1\nvalue = [0, 1]"] ;
161 -> 163 ;
164 [label="gini = 0.0\nsamples = 15\nvalue = [15, 0]"] ;
160 -> 164 ;
165 [label="X[2] <= -0.14\ngini = 0.48\nsamples = 5\nvalue = [3, 2]"] ;
159 -> 165 ;
166 [label="X[2] <= -0.181\ngini = 0.375\nsamples = 4\nvalue = [3, 1]"] ;
165 -> 166 ;
167 [label="X[2] <= -0.208\ngini = 0.5\nsamples = 2\nvalue = [1, 1]"] ;
166 -> 167 ;
168 [label="gini = 0.0\nsamples = 1\nvalue = [1, 0]"] ;
167 -> 168 ;
169 [label="gini = 0.0\nsamples = 1\nvalue = [0, 1]"] ;
167 -> 169 ;
170 [label="gini = 0.0\nsamples = 2\nvalue = [2, 0]"] ;
166 -> 170 ;
171 [label="gini = 0.0\nsamples = 1\nvalue = [0, 1]"] ;
165 -> 171 ;
172 [label="gini = 0.0\nsamples = 30\nvalue = [30, 0]"] ;
158 -> 172 ;
173 [label="X[2] <= -0.095\ngini = 0.314\nsamples = 41\nvalue = [33, 8]"] ;
157 -> 173 ;
174 [label="gini = 0.0\nsamples = 2\nvalue = [0, 2]"] ;
173 -> 174 ;
175 [label="X[0] <= -1.566\ngini = 0.26\nsamples = 39\nvalue = [33, 6]"] ;
173 -> 175 ;
176 [label="X[0] <= -1.58\ngini = 0.229\nsamples = 38\nvalue = [33, 5]"] ;
175 -> 176 ;
177 [label="X[2] <= -0.084\ngini = 0.175\nsamples = 31\nvalue = [28, 3]"] ;
176 -> 177 ;
178 [label="X[2] <= -0.088\ngini = 0.5\nsamples = 2\nvalue = [1, 1]"] ;
177 -> 178 ;
179 [label="gini = 0.0\nsamples = 1\nvalue = [1, 0]"] ;
178 -> 179 ;
180 [label="gini = 0.0\nsamples = 1\nvalue = [0, 1]"] ;
178 -> 180 ;
181 [label="X[0] <= -1.608\ngini = 0.128\nsamples = 29\nvalue = [27, 2]"] ;
177 -> 181 ;
182 [label="X[2] <= -0.049\ngini = 0.219\nsamples = 16\nvalue = [14, 2]"] ;
181 -> 182 ;
183 [label="X[2] <= -0.051\ngini = 0.346\nsamples = 9\nvalue = [7, 2]"] ;
182 -> 183 ;
184 [label="X[2] <= -0.064\ngini = 0.219\nsamples = 8\nvalue = [7, 1]"] ;
183 -> 184 ;
185 [label="gini = 0.0\nsamples = 5\nvalue = [5, 0]"] ;
184 -> 185 ;
186 [label="X[2] <= -0.06\ngini = 0.444\nsamples = 3\nvalue = [2, 1]"] ;
184 -> 186 ;
187 [label="gini = 0.0\nsamples = 1\nvalue = [0, 1]"] ;
186 -> 187 ;
188 [label="gini = 0.0\nsamples = 2\nvalue = [2, 0]"] ;
186 -> 188 ;
189 [label="gini = 0.0\nsamples = 1\nvalue = [0, 1]"] ;
183 -> 189 ;
190 [label="gini = 0.0\nsamples = 7\nvalue = [7, 0]"] ;
182 -> 190 ;
191 [label="gini = 0.0\nsamples = 13\nvalue = [13, 0]"] ;
181 -> 191 ;
192 [label="X[0] <= -1.573\ngini = 0.408\nsamples = 7\nvalue = [5, 2]"] ;
176 -> 192 ;
193 [label="X[2] <= -0.029\ngini = 0.444\nsamples = 3\nvalue = [1, 2]"] ;
192 -> 193 ;
194 [label="gini = 0.0\nsamples = 2\nvalue = [0, 2]"] ;
193 -> 194 ;
195 [label="gini = 0.0\nsamples = 1\nvalue = [1, 0]"] ;
193 -> 195 ;
196 [label="gini = 0.0\nsamples = 4\nvalue = [4, 0]"] ;
192 -> 196 ;
197 [label="gini = 0.0\nsamples = 1\nvalue = [0, 1]"] ;
175 -> 197 ;
198 [label="gini = 0.0\nsamples = 1\nvalue = [0, 1]"] ;
156 -> 198 ;
199 [label="X[0] <= -1.587\ngini = 0.105\nsamples = 72\nvalue = [68, 4]"] ;
155 -> 199 ;
200 [label="X[2] <= 0.115\ngini = 0.15\nsamples = 49\nvalue = [45, 4]"] ;
199 -> 200 ;
201 [label="X[2] <= 0.106\ngini = 0.202\nsamples = 35\nvalue = [31, 4]"] ;
200 -> 201 ;
202 [label="X[2] <= 0.053\ngini = 0.161\nsamples = 34\nvalue = [31, 3]"] ;
201 -> 202 ;
203 [label="X[0] <= -1.594\ngini = 0.077\nsamples = 25\nvalue = [24, 1]"] ;
202 -> 203 ;
204 [label="gini = 0.0\nsamples = 21\nvalue = [21, 0]"] ;
203 -> 204 ;
205 [label="X[2] <= 0.015\ngini = 0.375\nsamples = 4\nvalue = [3, 1]"] ;
203 -> 205 ;
206 [label="gini = 0.0\nsamples = 2\nvalue = [2, 0]"] ;
205 -> 206 ;
207 [label="X[2] <= 0.039\ngini = 0.5\nsamples = 2\nvalue = [1, 1]"] ;
205 -> 207 ;
208 [label="gini = 0.0\nsamples = 1\nvalue = [0, 1]"] ;
207 -> 208 ;
209 [label="gini = 0.0\nsamples = 1\nvalue = [1, 0]"] ;
207 -> 209 ;
210 [label="X[2] <= 0.07\ngini = 0.346\nsamples = 9\nvalue = [7, 2]"] ;
202 -> 210 ;
211 [label="gini = 0.0\nsamples = 2\nvalue = [0, 2]"] ;
210 -> 211 ;
212 [label="gini = 0.0\nsamples = 7\nvalue = [7, 0]"] ;
210 -> 212 ;
213 [label="gini = 0.0\nsamples = 1\nvalue = [0, 1]"] ;
201 -> 213 ;
214 [label="gini = 0.0\nsamples = 14\nvalue = [14, 0]"] ;
200 -> 214 ;
215 [label="gini = 0.0\nsamples = 23\nvalue = [23, 0]"] ;
199 -> 215 ;
216 [label="X[0] <= -1.577\ngini = 0.278\nsamples = 6\nvalue = [1, 5]"] ;
154 -> 216 ;
217 [label="gini = 0.0\nsamples = 5\nvalue = [0, 5]"] ;
216 -> 217 ;
218 [label="gini = 0.0\nsamples = 1\nvalue = [1, 0]"] ;
216 -> 218 ;
219 [label="gini = 0.0\nsamples = 22\nvalue = [22, 0]"] ;
153 -> 219 ;
220 [label="X[0] <= -1.482\ngini = 0.401\nsamples = 245\nvalue = [177, 68]"] ;
120 -> 220 ;
221 [label="X[2] <= 0.029\ngini = 0.18\nsamples = 30\nvalue = [3, 27]"] ;
220 -> 221 ;
222 [label="X[2] <= -0.049\ngini = 0.375\nsamples = 12\nvalue = [3, 9]"] ;
221 -> 222 ;
223 [label="X[2] <= -0.14\ngini = 0.18\nsamples = 10\nvalue = [1, 9]"] ;
222 -> 223 ;
224 [label="gini = 0.0\nsamples = 5\nvalue = [0, 5]"] ;
223 -> 224 ;
225 [label="X[2] <= -0.123\ngini = 0.32\nsamples = 5\nvalue = [1, 4]"] ;
223 -> 225 ;
226 [label="gini = 0.0\nsamples = 1\nvalue = [1, 0]"] ;
225 -> 226 ;
227 [label="gini = 0.0\nsamples = 4\nvalue = [0, 4]"] ;
225 -> 227 ;
228 [label="gini = 0.0\nsamples = 2\nvalue = [2, 0]"] ;
222 -> 228 ;
229 [label="gini = 0.0\nsamples = 18\nvalue = [0, 18]"] ;
221 -> 229 ;
230 [label="X[0] <= -1.397\ngini = 0.309\nsamples = 215\nvalue = [174, 41]"] ;
220 -> 230 ;
231 [label="X[2] <= 0.407\ngini = 0.263\nsamples = 186\nvalue = [157, 29]"] ;
230 -> 231 ;
232 [label="X[0] <= -1.433\ngini = 0.257\nsamples = 185\nvalue = [157, 28]"] ;
231 -> 232 ;
233 [label="X[2] <= -0.013\ngini = 0.309\nsamples = 110\nvalue = [89, 21]"] ;
232 -> 233 ;
234 [label="X[2] <= -0.016\ngini = 0.389\nsamples = 53\nvalue = [39, 14]"] ;
233 -> 234 ;
235 [label="X[2] <= -0.149\ngini = 0.375\nsamples = 52\nvalue = [39, 13]"] ;
234 -> 235 ;
236 [label="X[0] <= -1.468\ngini = 0.255\nsamples = 20\nvalue = [17, 3]"] ;
235 -> 236 ;
237 [label="X[0] <= -1.475\ngini = 0.48\nsamples = 5\nvalue = [2, 3]"] ;
236 -> 237 ;
238 [label="gini = 0.0\nsamples = 2\nvalue = [2, 0]"] ;
237 -> 238 ;
239 [label="gini = 0.0\nsamples = 3\nvalue = [0, 3]"] ;
237 -> 239 ;
240 [label="gini = 0.0\nsamples = 15\nvalue = [15, 0]"] ;
236 -> 240 ;
241 [label="X[0] <= -1.468\ngini = 0.43\nsamples = 32\nvalue = [22, 10]"] ;
235 -> 241 ;
242 [label="gini = 0.0\nsamples = 7\nvalue = [7, 0]"] ;
241 -> 242 ;
243 [label="X[2] <= -0.14\ngini = 0.48\nsamples = 25\nvalue = [15, 10]"] ;
241 -> 243 ;
244 [label="gini = 0.0\nsamples = 2\nvalue = [0, 2]"] ;
243 -> 244 ;
245 [label="X[2] <= -0.046\ngini = 0.454\nsamples = 23\nvalue = [15, 8]"] ;
243 -> 245 ;
246 [label="X[2] <= -0.089\ngini = 0.488\nsamples = 19\nvalue = [11, 8]"] ;
245 -> 246 ;
247 [label="X[0] <= -1.447\ngini = 0.43\nsamples = 16\nvalue = [11, 5]"] ;
246 -> 247 ;
248 [label="X[2] <= -0.099\ngini = 0.473\nsamples = 13\nvalue = [8, 5]"] ;
247 -> 248 ;
249 [label="X[2] <= -0.112\ngini = 0.444\nsamples = 12\nvalue = [8, 4]"] ;
248 -> 249 ;
250 [label="X[2] <= -0.112\ngini = 0.5\nsamples = 6\nvalue = [3, 3]"] ;
249 -> 250 ;
251 [label="X[2] <= -0.123\ngini = 0.375\nsamples = 4\nvalue = [3, 1]"] ;
250 -> 251 ;
252 [label="X[2] <= -0.132\ngini = 0.5\nsamples = 2\nvalue = [1, 1]"] ;
251 -> 252 ;
253 [label="gini = 0.0\nsamples = 1\nvalue = [1, 0]"] ;
252 -> 253 ;
254 [label="gini = 0.0\nsamples = 1\nvalue = [0, 1]"] ;
252 -> 254 ;
255 [label="gini = 0.0\nsamples = 2\nvalue = [2, 0]"] ;
251 -> 255 ;
256 [label="gini = 0.0\nsamples = 2\nvalue = [0, 2]"] ;
250 -> 256 ;
257 [label="X[2] <= -0.111\ngini = 0.278\nsamples = 6\nvalue = [5, 1]"] ;
249 -> 257 ;
258 [label="gini = 0.0\nsamples = 3\nvalue = [3, 0]"] ;
257 -> 258 ;
259 [label="X[0] <= -1.461\ngini = 0.444\nsamples = 3\nvalue = [2, 1]"] ;
257 -> 259 ;
260 [label="gini = 0.0\nsamples = 2\nvalue = [2, 0]"] ;
259 -> 260 ;
261 [label="gini = 0.0\nsamples = 1\nvalue = [0, 1]"] ;
259 -> 261 ;
262 [label="gini = 0.0\nsamples = 1\nvalue = [0, 1]"] ;
248 -> 262 ;
263 [label="gini = 0.0\nsamples = 3\nvalue = [3, 0]"] ;
247 -> 263 ;
264 [label="gini = 0.0\nsamples = 3\nvalue = [0, 3]"] ;
246 -> 264 ;
265 [label="gini = 0.0\nsamples = 4\nvalue = [4, 0]"] ;
245 -> 265 ;
266 [label="gini = 0.0\nsamples = 1\nvalue = [0, 1]"] ;
234 -> 266 ;
267 [label="X[2] <= 0.372\ngini = 0.215\nsamples = 57\nvalue = [50, 7]"] ;
233 -> 267 ;
268 [label="X[2] <= 0.098\ngini = 0.194\nsamples = 55\nvalue = [49, 6]"] ;
267 -> 268 ;
269 [label="X[2] <= 0.087\ngini = 0.269\nsamples = 25\nvalue = [21, 4]"] ;
268 -> 269 ;
270 [label="X[2] <= 0.058\ngini = 0.159\nsamples = 23\nvalue = [21, 2]"] ;
269 -> 270 ;
271 [label="X[2] <= 0.007\ngini = 0.095\nsamples = 20\nvalue = [19, 1]"] ;
270 -> 271 ;
272 [label="X[2] <= 0.001\ngini = 0.219\nsamples = 8\nvalue = [7, 1]"] ;
271 -> 272 ;
273 [label="gini = 0.0\nsamples = 7\nvalue = [7, 0]"] ;
272 -> 273 ;
274 [label="gini = 0.0\nsamples = 1\nvalue = [0, 1]"] ;
272 -> 274 ;
275 [label="gini = 0.0\nsamples = 12\nvalue = [12, 0]"] ;
271 -> 275 ;
276 [label="X[2] <= 0.063\ngini = 0.444\nsamples = 3\nvalue = [2, 1]"] ;
270 -> 276 ;
277 [label="gini = 0.0\nsamples = 1\nvalue = [0, 1]"] ;
276 -> 277 ;
278 [label="gini = 0.0\nsamples = 2\nvalue = [2, 0]"] ;
276 -> 278 ;
279 [label="gini = 0.0\nsamples = 2\nvalue = [0, 2]"] ;
269 -> 279 ;
280 [label="X[2] <= 0.238\ngini = 0.124\nsamples = 30\nvalue = [28, 2]"] ;
268 -> 280 ;
281 [label="gini = 0.0\nsamples = 18\nvalue = [18, 0]"] ;
280 -> 281 ;
282 [label="X[2] <= 0.246\ngini = 0.278\nsamples = 12\nvalue = [10, 2]"] ;
280 -> 282 ;
283 [label="gini = 0.0\nsamples = 1\nvalue = [0, 1]"] ;
282 -> 283 ;
284 [label="X[0] <= -1.45\ngini = 0.165\nsamples = 11\nvalue = [10, 1]"] ;
282 -> 284 ;
285 [label="gini = 0.0\nsamples = 7\nvalue = [7, 0]"] ;
284 -> 285 ;
286 [label="X[0] <= -1.44\ngini = 0.375\nsamples = 4\nvalue = [3, 1]"] ;
284 -> 286 ;
287 [label="X[2] <= 0.274\ngini = 0.5\nsamples = 2\nvalue = [1, 1]"] ;
286 -> 287 ;
288 [label="gini = 0.0\nsamples = 1\nvalue = [1, 0]"] ;
287 -> 288 ;
289 [label="gini = 0.0\nsamples = 1\nvalue = [0, 1]"] ;
287 -> 289 ;
290 [label="gini = 0.0\nsamples = 2\nvalue = [2, 0]"] ;
286 -> 290 ;
291 [label="X[2] <= 0.376\ngini = 0.5\nsamples = 2\nvalue = [1, 1]"] ;
267 -> 291 ;
292 [label="gini = 0.0\nsamples = 1\nvalue = [0, 1]"] ;
291 -> 292 ;
293 [label="gini = 0.0\nsamples = 1\nvalue = [1, 0]"] ;
291 -> 293 ;
294 [label="X[2] <= 0.244\ngini = 0.169\nsamples = 75\nvalue = [68, 7]"] ;
232 -> 294 ;
295 [label="X[2] <= -0.143\ngini = 0.091\nsamples = 63\nvalue = [60, 3]"] ;
294 -> 295 ;
296 [label="X[2] <= -0.161\ngini = 0.188\nsamples = 19\nvalue = [17, 2]"] ;
295 -> 296 ;
297 [label="gini = 0.0\nsamples = 16\nvalue = [16, 0]"] ;
296 -> 297 ;
298 [label="X[2] <= -0.155\ngini = 0.444\nsamples = 3\nvalue = [1, 2]"] ;
296 -> 298 ;
299 [label="gini = 0.0\nsamples = 1\nvalue = [0, 1]"] ;
298 -> 299 ;
300 [label="X[2] <= -0.146\ngini = 0.5\nsamples = 2\nvalue = [1, 1]"] ;
298 -> 300 ;
301 [label="gini = 0.0\nsamples = 1\nvalue = [1, 0]"] ;
300 -> 301 ;
302 [label="gini = 0.0\nsamples = 1\nvalue = [0, 1]"] ;
300 -> 302 ;
303 [label="X[0] <= -1.426\ngini = 0.044\nsamples = 44\nvalue = [43, 1]"] ;
295 -> 303 ;
304 [label="X[2] <= 0.06\ngini = 0.219\nsamples = 8\nvalue = [7, 1]"] ;
303 -> 304 ;
305 [label="X[2] <= 0.05\ngini = 0.375\nsamples = 4\nvalue = [3, 1]"] ;
304 -> 305 ;
306 [label="gini = 0.0\nsamples = 3\nvalue = [3, 0]"] ;
305 -> 306 ;
307 [label="gini = 0.0\nsamples = 1\nvalue = [0, 1]"] ;
305 -> 307 ;
308 [label="gini = 0.0\nsamples = 4\nvalue = [4, 0]"] ;
304 -> 308 ;
309 [label="gini = 0.0\nsamples = 36\nvalue = [36, 0]"] ;
303 -> 309 ;
310 [label="X[0] <= -1.411\ngini = 0.444\nsamples = 12\nvalue = [8, 4]"] ;
294 -> 310 ;
311 [label="X[2] <= 0.257\ngini = 0.219\nsamples = 8\nvalue = [7, 1]"] ;
310 -> 311 ;
312 [label="gini = 0.0\nsamples = 1\nvalue = [0, 1]"] ;
311 -> 312 ;
313 [label="gini = 0.0\nsamples = 7\nvalue = [7, 0]"] ;
311 -> 313 ;
314 [label="X[2] <= 0.371\ngini = 0.375\nsamples = 4\nvalue = [1, 3]"] ;
310 -> 314 ;
315 [label="gini = 0.0\nsamples = 3\nvalue = [0, 3]"] ;
314 -> 315 ;
316 [label="gini = 0.0\nsamples = 1\nvalue = [1, 0]"] ;
314 -> 316 ;
317 [label="gini = 0.0\nsamples = 1\nvalue = [0, 1]"] ;
231 -> 317 ;
318 [label="X[2] <= 0.205\ngini = 0.485\nsamples = 29\nvalue = [17, 12]"] ;
230 -> 318 ;
319 [label="X[2] <= -0.159\ngini = 0.466\nsamples = 27\nvalue = [17, 10]"] ;
318 -> 319 ;
320 [label="X[2] <= -0.202\ngini = 0.375\nsamples = 4\nvalue = [1, 3]"] ;
319 -> 320 ;
321 [label="gini = 0.0\nsamples = 1\nvalue = [1, 0]"] ;
320 -> 321 ;
322 [label="gini = 0.0\nsamples = 3\nvalue = [0, 3]"] ;
320 -> 322 ;
323 [label="X[2] <= -0.054\ngini = 0.423\nsamples = 23\nvalue = [16, 7]"] ;
319 -> 323 ;
324 [label="gini = 0.0\nsamples = 8\nvalue = [8, 0]"] ;
323 -> 324 ;
325 [label="X[2] <= 0.11\ngini = 0.498\nsamples = 15\nvalue = [8, 7]"] ;
323 -> 325 ;
326 [label="X[0] <= -1.376\ngini = 0.486\nsamples = 12\nvalue = [5, 7]"] ;
325 -> 326 ;
327 [label="X[2] <= -0.046\ngini = 0.496\nsamples = 11\nvalue = [5, 6]"] ;
326 -> 327 ;
328 [label="gini = 0.0\nsamples = 1\nvalue = [1, 0]"] ;
327 -> 328 ;
329 [label="X[2] <= -0.029\ngini = 0.48\nsamples = 10\nvalue = [4, 6]"] ;
327 -> 329 ;
330 [label="gini = 0.0\nsamples = 2\nvalue = [0, 2]"] ;
329 -> 330 ;
331 [label="X[2] <= 0.037\ngini = 0.5\nsamples = 8\nvalue = [4, 4]"] ;
329 -> 331 ;
332 [label="gini = 0.0\nsamples = 2\nvalue = [2, 0]"] ;
331 -> 332 ;
333 [label="X[0] <= -1.387\ngini = 0.444\nsamples = 6\nvalue = [2, 4]"] ;
331 -> 333 ;
334 [label="gini = 0.0\nsamples = 2\nvalue = [0, 2]"] ;
333 -> 334 ;
335 [label="X[2] <= 0.067\ngini = 0.5\nsamples = 4\nvalue = [2, 2]"] ;
333 -> 335 ;
336 [label="gini = 0.0\nsamples = 1\nvalue = [1, 0]"] ;
335 -> 336 ;
337 [label="X[2] <= 0.087\ngini = 0.444\nsamples = 3\nvalue = [1, 2]"] ;
335 -> 337 ;
338 [label="gini = 0.0\nsamples = 1\nvalue = [0, 1]"] ;
337 -> 338 ;
339 [label="X[2] <= 0.101\ngini = 0.5\nsamples = 2\nvalue = [1, 1]"] ;
337 -> 339 ;
340 [label="gini = 0.0\nsamples = 1\nvalue = [1, 0]"] ;
339 -> 340 ;
341 [label="gini = 0.0\nsamples = 1\nvalue = [0, 1]"] ;
339 -> 341 ;
342 [label="gini = 0.0\nsamples = 1\nvalue = [0, 1]"] ;
326 -> 342 ;
343 [label="gini = 0.0\nsamples = 3\nvalue = [3, 0]"] ;
325 -> 343 ;
344 [label="gini = 0.0\nsamples = 2\nvalue = [0, 2]"] ;
318 -> 344 ;
345 [label="X[0] <= -0.878\ngini = 0.061\nsamples = 221\nvalue = [7, 214]"] ;
7 -> 345 ;
346 [label="X[2] <= -0.292\ngini = 0.03\nsamples = 194\nvalue = [3, 191]"] ;
345 -> 346 ;
347 [label="X[2] <= -0.294\ngini = 0.444\nsamples = 3\nvalue = [1, 2]"] ;
346 -> 347 ;
348 [label="gini = 0.0\nsamples = 2\nvalue = [0, 2]"] ;
347 -> 348 ;
349 [label="gini = 0.0\nsamples = 1\nvalue = [1, 0]"] ;
347 -> 349 ;
350 [label="X[0] <= -1.053\ngini = 0.021\nsamples = 191\nvalue = [2, 189]"] ;
346 -> 350 ;
351 [label="gini = 0.0\nsamples = 131\nvalue = [0, 131]"] ;
350 -> 351 ;
352 [label="X[0] <= -1.032\ngini = 0.064\nsamples = 60\nvalue = [2, 58]"] ;
350 -> 352 ;
353 [label="X[0] <= -1.039\ngini = 0.408\nsamples = 7\nvalue = [2, 5]"] ;
352 -> 353 ;
354 [label="X[0] <= -1.046\ngini = 0.278\nsamples = 6\nvalue = [1, 5]"] ;
353 -> 354 ;
355 [label="X[2] <= 0.08\ngini = 0.5\nsamples = 2\nvalue = [1, 1]"] ;
354 -> 355 ;
356 [label="gini = 0.0\nsamples = 1\nvalue = [1, 0]"] ;
355 -> 356 ;
357 [label="gini = 0.0\nsamples = 1\nvalue = [0, 1]"] ;
355 -> 357 ;
358 [label="gini = 0.0\nsamples = 4\nvalue = [0, 4]"] ;
354 -> 358 ;
359 [label="gini = 0.0\nsamples = 1\nvalue = [1, 0]"] ;
353 -> 359 ;
360 [label="gini = 0.0\nsamples = 53\nvalue = [0, 53]"] ;
352 -> 360 ;
361 [label="X[0] <= -0.87\ngini = 0.252\nsamples = 27\nvalue = [4, 23]"] ;
345 -> 361 ;
362 [label="X[2] <= -0.219\ngini = 0.5\nsamples = 6\nvalue = [3, 3]"] ;
361 -> 362 ;
363 [label="gini = 0.0\nsamples = 1\nvalue = [0, 1]"] ;
362 -> 363 ;
364 [label="X[2] <= -0.008\ngini = 0.48\nsamples = 5\nvalue = [3, 2]"] ;
362 -> 364 ;
365 [label="gini = 0.0\nsamples = 2\nvalue = [2, 0]"] ;
364 -> 365 ;
366 [label="X[2] <= 0.206\ngini = 0.444\nsamples = 3\nvalue = [1, 2]"] ;
364 -> 366 ;
367 [label="gini = 0.0\nsamples = 2\nvalue = [0, 2]"] ;
366 -> 367 ;
368 [label="gini = 0.0\nsamples = 1\nvalue = [1, 0]"] ;
366 -> 368 ;
369 [label="X[0] <= -0.863\ngini = 0.091\nsamples = 21\nvalue = [1, 20]"] ;
361 -> 369 ;
370 [label="X[2] <= -0.016\ngini = 0.32\nsamples = 5\nvalue = [1, 4]"] ;
369 -> 370 ;
371 [label="gini = 0.0\nsamples = 3\nvalue = [0, 3]"] ;
370 -> 371 ;
372 [label="X[2] <= 0.208\ngini = 0.5\nsamples = 2\nvalue = [1, 1]"] ;
370 -> 372 ;
373 [label="gini = 0.0\nsamples = 1\nvalue = [1, 0]"] ;
372 -> 373 ;
374 [label="gini = 0.0\nsamples = 1\nvalue = [0, 1]"] ;
372 -> 374 ;
375 [label="gini = 0.0\nsamples = 16\nvalue = [0, 16]"] ;
369 -> 375 ;
376 [label="X[2] <= -0.261\ngini = 0.383\nsamples = 2979\nvalue = [2209, 770]"] ;
6 -> 376 ;
377 [label="X[2] <= -0.263\ngini = 0.471\nsamples = 256\nvalue = [159, 97]"] ;
376 -> 377 ;
378 [label="X[2] <= -0.297\ngini = 0.462\nsamples = 249\nvalue = [159, 90]"] ;
377 -> 378 ;
379 [label="X[0] <= 0.264\ngini = 0.198\nsamples = 9\nvalue = [1, 8]"] ;
378 -> 379 ;
380 [label="gini = 0.0\nsamples = 5\nvalue = [0, 5]"] ;
379 -> 380 ;
381 [label="X[0] <= 0.517\ngini = 0.375\nsamples = 4\nvalue = [1, 3]"] ;
379 -> 381 ;
382 [label="gini = 0.0\nsamples = 1\nvalue = [1, 0]"] ;
381 -> 382 ;
383 [label="gini = 0.0\nsamples = 3\nvalue = [0, 3]"] ;
381 -> 383 ;
384 [label="X[0] <= 1.135\ngini = 0.45\nsamples = 240\nvalue = [158, 82]"] ;
378 -> 384 ;
385 [label="X[0] <= 1.037\ngini = 0.446\nsamples = 238\nvalue = [158, 80]"] ;
384 -> 385 ;
386 [label="X[0] <= 0.967\ngini = 0.457\nsamples = 221\nvalue = [143, 78]"] ;
385 -> 386 ;
387 [label="X[0] <= -0.224\ngini = 0.447\nsamples = 216\nvalue = [143, 73]"] ;
386 -> 387 ;
388 [label="X[0] <= -0.291\ngini = 0.384\nsamples = 81\nvalue = [60, 21]"] ;
387 -> 388 ;
389 [label="X[2] <= -0.294\ngini = 0.426\nsamples = 65\nvalue = [45, 20]"] ;
388 -> 389 ;
390 [label="gini = 0.0\nsamples = 9\nvalue = [9, 0]"] ;
389 -> 390 ;
391 [label="X[0] <= -0.54\ngini = 0.459\nsamples = 56\nvalue = [36, 20]"] ;
389 -> 391 ;
392 [label="X[0] <= -0.579\ngini = 0.394\nsamples = 37\nvalue = [27, 10]"] ;
391 -> 392 ;
393 [label="X[0] <= -0.779\ngini = 0.444\nsamples = 30\nvalue = [20, 10]"] ;
392 -> 393 ;
394 [label="gini = 0.0\nsamples = 5\nvalue = [5, 0]"] ;
393 -> 394 ;
395 [label="X[2] <= -0.286\ngini = 0.48\nsamples = 25\nvalue = [15, 10]"] ;
393 -> 395 ;
396 [label="gini = 0.0\nsamples = 2\nvalue = [0, 2]"] ;
395 -> 396 ;
397 [label="X[2] <= -0.264\ngini = 0.454\nsamples = 23\nvalue = [15, 8]"] ;
395 -> 397 ;
398 [label="X[0] <= -0.646\ngini = 0.434\nsamples = 22\nvalue = [15, 7]"] ;
397 -> 398 ;
399 [label="X[0] <= -0.709\ngini = 0.497\nsamples = 13\nvalue = [7, 6]"] ;
398 -> 399 ;
400 [label="X[2] <= -0.285\ngini = 0.42\nsamples = 10\nvalue = [7, 3]"] ;
399 -> 400 ;
401 [label="gini = 0.0\nsamples = 1\nvalue = [0, 1]"] ;
400 -> 401 ;
402 [label="X[2] <= -0.271\ngini = 0.346\nsamples = 9\nvalue = [7, 2]"] ;
400 -> 402 ;
403 [label="X[0] <= -0.762\ngini = 0.444\nsamples = 6\nvalue = [4, 2]"] ;
402 -> 403 ;
404 [label="gini = 0.0\nsamples = 1\nvalue = [0, 1]"] ;
403 -> 404 ;
405 [label="X[2] <= -0.279\ngini = 0.32\nsamples = 5\nvalue = [4, 1]"] ;
403 -> 405 ;
406 [label="gini = 0.0\nsamples = 2\nvalue = [2, 0]"] ;
405 -> 406 ;
407 [label="X[2] <= -0.277\ngini = 0.444\nsamples = 3\nvalue = [2, 1]"] ;
405 -> 407 ;
408 [label="gini = 0.0\nsamples = 1\nvalue = [0, 1]"] ;
407 -> 408 ;
409 [label="gini = 0.0\nsamples = 2\nvalue = [2, 0]"] ;
407 -> 409 ;
410 [label="gini = 0.0\nsamples = 3\nvalue = [3, 0]"] ;
402 -> 410 ;
411 [label="gini = 0.0\nsamples = 3\nvalue = [0, 3]"] ;
399 -> 411 ;
412 [label="X[0] <= -0.589\ngini = 0.198\nsamples = 9\nvalue = [8, 1]"] ;
398 -> 412 ;
413 [label="gini = 0.0\nsamples = 8\nvalue = [8, 0]"] ;
412 -> 413 ;
414 [label="gini = 0.0\nsamples = 1\nvalue = [0, 1]"] ;
412 -> 414 ;
415 [label="gini = 0.0\nsamples = 1\nvalue = [0, 1]"] ;
397 -> 415 ;
416 [label="gini = 0.0\nsamples = 7\nvalue = [7, 0]"] ;
392 -> 416 ;
417 [label="X[0] <= -0.463\ngini = 0.499\nsamples = 19\nvalue = [9, 10]"] ;
391 -> 417 ;
418 [label="gini = 0.0\nsamples = 3\nvalue = [0, 3]"] ;
417 -> 418 ;
419 [label="X[2] <= -0.287\ngini = 0.492\nsamples = 16\nvalue = [9, 7]"] ;
417 -> 419 ;
420 [label="gini = 0.0\nsamples = 2\nvalue = [0, 2]"] ;
419 -> 420 ;
421 [label="X[0] <= -0.382\ngini = 0.459\nsamples = 14\nvalue = [9, 5]"] ;
419 -> 421 ;
422 [label="X[2] <= -0.278\ngini = 0.346\nsamples = 9\nvalue = [7, 2]"] ;
421 -> 422 ;
423 [label="gini = 0.0\nsamples = 3\nvalue = [3, 0]"] ;
422 -> 423 ;
424 [label="X[2] <= -0.275\ngini = 0.444\nsamples = 6\nvalue = [4, 2]"] ;
422 -> 424 ;
425 [label="gini = 0.0\nsamples = 1\nvalue = [0, 1]"] ;
424 -> 425 ;
426 [label="X[0] <= -0.407\ngini = 0.32\nsamples = 5\nvalue = [4, 1]"] ;
424 -> 426 ;
427 [label="gini = 0.0\nsamples = 4\nvalue = [4, 0]"] ;
426 -> 427 ;
428 [label="gini = 0.0\nsamples = 1\nvalue = [0, 1]"] ;
426 -> 428 ;
429 [label="X[2] <= -0.265\ngini = 0.48\nsamples = 5\nvalue = [2, 3]"] ;
421 -> 429 ;
430 [label="X[0] <= -0.308\ngini = 0.375\nsamples = 4\nvalue = [1, 3]"] ;
429 -> 430 ;
431 [label="gini = 0.0\nsamples = 2\nvalue = [0, 2]"] ;
430 -> 431 ;
432 [label="X[2] <= -0.275\ngini = 0.5\nsamples = 2\nvalue = [1, 1]"] ;
430 -> 432 ;
433 [label="gini = 0.0\nsamples = 1\nvalue = [1, 0]"] ;
432 -> 433 ;
434 [label="gini = 0.0\nsamples = 1\nvalue = [0, 1]"] ;
432 -> 434 ;
435 [label="gini = 0.0\nsamples = 1\nvalue = [1, 0]"] ;
429 -> 435 ;
436 [label="X[2] <= -0.275\ngini = 0.117\nsamples = 16\nvalue = [15, 1]"] ;
388 -> 436 ;
437 [label="gini = 0.0\nsamples = 12\nvalue = [12, 0]"] ;
436 -> 437 ;
438 [label="X[2] <= -0.273\ngini = 0.375\nsamples = 4\nvalue = [3, 1]"] ;
436 -> 438 ;
439 [label="gini = 0.0\nsamples = 1\nvalue = [0, 1]"] ;
438 -> 439 ;
440 [label="gini = 0.0\nsamples = 3\nvalue = [3, 0]"] ;
438 -> 440 ;
441 [label="X[2] <= -0.285\ngini = 0.474\nsamples = 135\nvalue = [83, 52]"] ;
387 -> 441 ;
442 [label="X[0] <= 0.535\ngini = 0.5\nsamples = 45\nvalue = [22, 23]"] ;
441 -> 442 ;
443 [label="X[0] <= 0.254\ngini = 0.435\nsamples = 25\nvalue = [8, 17]"] ;
442 -> 443 ;
444 [label="X[2] <= -0.296\ngini = 0.498\nsamples = 17\nvalue = [8, 9]"] ;
443 -> 444 ;
445 [label="gini = 0.0\nsamples = 2\nvalue = [2, 0]"] ;
444 -> 445 ;
446 [label="X[0] <= 0.233\ngini = 0.48\nsamples = 15\nvalue = [6, 9]"] ;
444 -> 446 ;
447 [label="X[2] <= -0.292\ngini = 0.459\nsamples = 14\nvalue = [5, 9]"] ;
446 -> 447 ;
448 [label="X[2] <= -0.295\ngini = 0.375\nsamples = 8\nvalue = [2, 6]"] ;
447 -> 448 ;
449 [label="X[2] <= -0.296\ngini = 0.5\nsamples = 4\nvalue = [2, 2]"] ;
448 -> 449 ;
450 [label="gini = 0.0\nsamples = 1\nvalue = [0, 1]"] ;
449 -> 450 ;
451 [label="X[0] <= 0.219\ngini = 0.444\nsamples = 3\nvalue = [2, 1]"] ;
449 -> 451 ;
452 [label="gini = 0.0\nsamples = 2\nvalue = [2, 0]"] ;
451 -> 452 ;
453 [label="gini = 0.0\nsamples = 1\nvalue = [0, 1]"] ;
451 -> 453 ;
454 [label="gini = 0.0\nsamples = 4\nvalue = [0, 4]"] ;
448 -> 454 ;
455 [label="X[2] <= -0.29\ngini = 0.5\nsamples = 6\nvalue = [3, 3]"] ;
447 -> 455 ;
456 [label="gini = 0.0\nsamples = 2\nvalue = [2, 0]"] ;
455 -> 456 ;
457 [label="X[2] <= -0.288\ngini = 0.375\nsamples = 4\nvalue = [1, 3]"] ;
455 -> 457 ;
458 [label="gini = 0.0\nsamples = 2\nvalue = [0, 2]"] ;
457 -> 458 ;
459 [label="X[0] <= 0.046\ngini = 0.5\nsamples = 2\nvalue = [1, 1]"] ;
457 -> 459 ;
460 [label="gini = 0.0\nsamples = 1\nvalue = [1, 0]"] ;
459 -> 460 ;
461 [label="gini = 0.0\nsamples = 1\nvalue = [0, 1]"] ;
459 -> 461 ;
462 [label="gini = 0.0\nsamples = 1\nvalue = [1, 0]"] ;
446 -> 462 ;
463 [label="gini = 0.0\nsamples = 8\nvalue = [0, 8]"] ;
443 -> 463 ;
464 [label="X[2] <= -0.286\ngini = 0.42\nsamples = 20\nvalue = [14, 6]"] ;
442 -> 464 ;
465 [label="X[0] <= 0.921\ngini = 0.346\nsamples = 18\nvalue = [14, 4]"] ;
464 -> 465 ;
466 [label="X[2] <= -0.287\ngini = 0.245\nsamples = 14\nvalue = [12, 2]"] ;
465 -> 466 ;
467 [label="gini = 0.0\nsamples = 8\nvalue = [8, 0]"] ;
466 -> 467 ;
468 [label="X[2] <= -0.287\ngini = 0.444\nsamples = 6\nvalue = [4, 2]"] ;
466 -> 468 ;
469 [label="gini = 0.0\nsamples = 1\nvalue = [0, 1]"] ;
468 -> 469 ;
470 [label="X[2] <= -0.287\ngini = 0.32\nsamples = 5\nvalue = [4, 1]"] ;
468 -> 470 ;
471 [label="gini = 0.0\nsamples = 2\nvalue = [2, 0]"] ;
470 -> 471 ;
472 [label="X[2] <= -0.287\ngini = 0.444\nsamples = 3\nvalue = [2, 1]"] ;
470 -> 472 ;
473 [label="gini = 0.0\nsamples = 1\nvalue = [0, 1]"] ;
472 -> 473 ;
474 [label="gini = 0.0\nsamples = 2\nvalue = [2, 0]"] ;
472 -> 474 ;
475 [label="X[2] <= -0.289\ngini = 0.5\nsamples = 4\nvalue = [2, 2]"] ;
465 -> 475 ;
476 [label="gini = 0.0\nsamples = 2\nvalue = [0, 2]"] ;
475 -> 476 ;
477 [label="gini = 0.0\nsamples = 2\nvalue = [2, 0]"] ;
475 -> 477 ;
478 [label="gini = 0.0\nsamples = 2\nvalue = [0, 2]"] ;
464 -> 478 ;
479 [label="X[0] <= -0.084\ngini = 0.437\nsamples = 90\nvalue = [61, 29]"] ;
441 -> 479 ;
480 [label="X[2] <= -0.274\ngini = 0.444\nsamples = 6\nvalue = [2, 4]"] ;
479 -> 480 ;
481 [label="gini = 0.0\nsamples = 4\nvalue = [0, 4]"] ;
480 -> 481 ;
482 [label="gini = 0.0\nsamples = 2\nvalue = [2, 0]"] ;
480 -> 482 ;
483 [label="X[0] <= 0.268\ngini = 0.418\nsamples = 84\nvalue = [59, 25]"] ;
479 -> 483 ;
484 [label="X[0] <= 0.197\ngini = 0.312\nsamples = 31\nvalue = [25, 6]"] ;
483 -> 484 ;
485 [label="X[2] <= -0.267\ngini = 0.397\nsamples = 22\nvalue = [16, 6]"] ;
484 -> 485 ;
486 [label="X[0] <= -0.017\ngini = 0.469\nsamples = 16\nvalue = [10, 6]"] ;
485 -> 486 ;
487 [label="gini = 0.0\nsamples = 3\nvalue = [3, 0]"] ;
486 -> 487 ;
488 [label="X[0] <= 0.036\ngini = 0.497\nsamples = 13\nvalue = [7, 6]"] ;
486 -> 488 ;
489 [label="gini = 0.0\nsamples = 2\nvalue = [0, 2]"] ;
488 -> 489 ;
490 [label="X[0] <= 0.159\ngini = 0.463\nsamples = 11\nvalue = [7, 4]"] ;
488 -> 490 ;
491 [label="X[2] <= -0.276\ngini = 0.42\nsamples = 10\nvalue = [7, 3]"] ;
490 -> 491 ;
492 [label="X[2] <= -0.281\ngini = 0.5\nsamples = 6\nvalue = [3, 3]"] ;
491 -> 492 ;
493 [label="X[0] <= 0.11\ngini = 0.375\nsamples = 4\nvalue = [3, 1]"] ;
492 -> 493 ;
494 [label="gini = 0.0\nsamples = 3\nvalue = [3, 0]"] ;
493 -> 494 ;
495 [label="gini = 0.0\nsamples = 1\nvalue = [0, 1]"] ;
493 -> 495 ;
496 [label="gini = 0.0\nsamples = 2\nvalue = [0, 2]"] ;
492 -> 496 ;
497 [label="gini = 0.0\nsamples = 4\nvalue = [4, 0]"] ;
491 -> 497 ;
498 [label="gini = 0.0\nsamples = 1\nvalue = [0, 1]"] ;
490 -> 498 ;
499 [label="gini = 0.0\nsamples = 6\nvalue = [6, 0]"] ;
485 -> 499 ;
500 [label="gini = 0.0\nsamples = 9\nvalue = [9, 0]"] ;
484 -> 500 ;
501 [label="X[0] <= 0.275\ngini = 0.46\nsamples = 53\nvalue = [34, 19]"] ;
483 -> 501 ;
502 [label="gini = 0.0\nsamples = 3\nvalue = [0, 3]"] ;
501 -> 502 ;
503 [label="X[2] <= -0.283\ngini = 0.435\nsamples = 50\nvalue = [34, 16]"] ;
501 -> 503 ;
504 [label="gini = 0.0\nsamples = 6\nvalue = [6, 0]"] ;
503 -> 504 ;
505 [label="X[2] <= -0.282\ngini = 0.463\nsamples = 44\nvalue = [28, 16]"] ;
503 -> 505 ;
506 [label="gini = 0.0\nsamples = 2\nvalue = [0, 2]"] ;
505 -> 506 ;
507 [label="X[0] <= 0.443\ngini = 0.444\nsamples = 42\nvalue = [28, 14]"] ;
505 -> 507 ;
508 [label="gini = 0.0\nsamples = 7\nvalue = [7, 0]"] ;
507 -> 508 ;
509 [label="X[2] <= -0.281\ngini = 0.48\nsamples = 35\nvalue = [21, 14]"] ;
507 -> 509 ;
510 [label="gini = 0.0\nsamples = 5\nvalue = [5, 0]"] ;
509 -> 510 ;
511 [label="X[0] <= 0.71\ngini = 0.498\nsamples = 30\nvalue = [16, 14]"] ;
509 -> 511 ;
512 [label="X[2] <= -0.273\ngini = 0.48\nsamples = 15\nvalue = [6, 9]"] ;
511 -> 512 ;
513 [label="X[2] <= -0.278\ngini = 0.32\nsamples = 5\nvalue = [4, 1]"] ;
512 -> 513 ;
514 [label="gini = 0.0\nsamples = 1\nvalue = [0, 1]"] ;
513 -> 514 ;
515 [label="gini = 0.0\nsamples = 4\nvalue = [4, 0]"] ;
513 -> 515 ;
516 [label="X[2] <= -0.268\ngini = 0.32\nsamples = 10\nvalue = [2, 8]"] ;
512 -> 516 ;
517 [label="gini = 0.0\nsamples = 4\nvalue = [0, 4]"] ;
516 -> 517 ;
518 [label="X[2] <= -0.266\ngini = 0.444\nsamples = 6\nvalue = [2, 4]"] ;
516 -> 518 ;
519 [label="gini = 0.0\nsamples = 1\nvalue = [1, 0]"] ;
518 -> 519 ;
520 [label="X[2] <= -0.263\ngini = 0.32\nsamples = 5\nvalue = [1, 4]"] ;
518 -> 520 ;
521 [label="gini = 0.0\nsamples = 3\nvalue = [0, 3]"] ;
520 -> 521 ;
522 [label="X[0] <= 0.633\ngini = 0.5\nsamples = 2\nvalue = [1, 1]"] ;
520 -> 522 ;
523 [label="gini = 0.0\nsamples = 1\nvalue = [1, 0]"] ;
522 -> 523 ;
524 [label="gini = 0.0\nsamples = 1\nvalue = [0, 1]"] ;
522 -> 524 ;
525 [label="X[2] <= -0.269\ngini = 0.444\nsamples = 15\nvalue = [10, 5]"] ;
511 -> 525 ;
526 [label="X[0] <= 0.914\ngini = 0.494\nsamples = 9\nvalue = [4, 5]"] ;
525 -> 526 ;
527 [label="X[0] <= 0.767\ngini = 0.32\nsamples = 5\nvalue = [1, 4]"] ;
526 -> 527 ;
528 [label="X[2] <= -0.275\ngini = 0.5\nsamples = 2\nvalue = [1, 1]"] ;
527 -> 528 ;
529 [label="gini = 0.0\nsamples = 1\nvalue = [1, 0]"] ;
528 -> 529 ;
530 [label="gini = 0.0\nsamples = 1\nvalue = [0, 1]"] ;
528 -> 530 ;
531 [label="gini = 0.0\nsamples = 3\nvalue = [0, 3]"] ;
527 -> 531 ;
532 [label="X[2] <= -0.27\ngini = 0.375\nsamples = 4\nvalue = [3, 1]"] ;
526 -> 532 ;
533 [label="gini = 0.0\nsamples = 3\nvalue = [3, 0]"] ;
532 -> 533 ;
534 [label="gini = 0.0\nsamples = 1\nvalue = [0, 1]"] ;
532 -> 534 ;
535 [label="gini = 0.0\nsamples = 6\nvalue = [6, 0]"] ;
525 -> 535 ;
536 [label="gini = 0.0\nsamples = 5\nvalue = [0, 5]"] ;
386 -> 536 ;
537 [label="X[2] <= -0.267\ngini = 0.208\nsamples = 17\nvalue = [15, 2]"] ;
385 -> 537 ;
538 [label="X[0] <= 1.118\ngini = 0.133\nsamples = 14\nvalue = [13, 1]"] ;
537 -> 538 ;
539 [label="gini = 0.0\nsamples = 11\nvalue = [11, 0]"] ;
538 -> 539 ;
540 [label="X[2] <= -0.279\ngini = 0.444\nsamples = 3\nvalue = [2, 1]"] ;
538 -> 540 ;
541 [label="gini = 0.0\nsamples = 1\nvalue = [0, 1]"] ;
540 -> 541 ;
542 [label="gini = 0.0\nsamples = 2\nvalue = [2, 0]"] ;
540 -> 542 ;
543 [label="X[2] <= -0.265\ngini = 0.444\nsamples = 3\nvalue = [2, 1]"] ;
537 -> 543 ;
544 [label="gini = 0.0\nsamples = 1\nvalue = [0, 1]"] ;
543 -> 544 ;
545 [label="gini = 0.0\nsamples = 2\nvalue = [2, 0]"] ;
543 -> 545 ;
546 [label="gini = 0.0\nsamples = 2\nvalue = [0, 2]"] ;
384 -> 546 ;
547 [label="gini = 0.0\nsamples = 7\nvalue = [0, 7]"] ;
377 -> 547 ;
548 [label="X[0] <= -0.716\ngini = 0.372\nsamples = 2723\nvalue = [2050, 673]"] ;
376 -> 548 ;
549 [label="X[2] <= 0.314\ngini = 0.205\nsamples = 181\nvalue = [160, 21]"] ;
548 -> 549 ;
550 [label="X[2] <= -0.21\ngini = 0.179\nsamples = 171\nvalue = [154, 17]"] ;
549 -> 550 ;
551 [label="gini = 0.0\nsamples = 23\nvalue = [23, 0]"] ;
550 -> 551 ;
552 [label="X[2] <= -0.208\ngini = 0.203\nsamples = 148\nvalue = [131, 17]"] ;
550 -> 552 ;
553 [label="gini = 0.0\nsamples = 2\nvalue = [0, 2]"] ;
552 -> 553 ;
554 [label="X[2] <= 0.054\ngini = 0.184\nsamples = 146\nvalue = [131, 15]"] ;
552 -> 554 ;
555 [label="X[2] <= 0.032\ngini = 0.231\nsamples = 90\nvalue = [78, 12]"] ;
554 -> 555 ;
556 [label="X[0] <= -0.751\ngini = 0.187\nsamples = 86\nvalue = [77, 9]"] ;
555 -> 556 ;
557 [label="X[2] <= -0.202\ngini = 0.292\nsamples = 45\nvalue = [37, 8]"] ;
556 -> 557 ;
558 [label="X[2] <= -0.203\ngini = 0.5\nsamples = 2\nvalue = [1, 1]"] ;
557 -> 558 ;
559 [label="gini = 0.0\nsamples = 1\nvalue = [1, 0]"] ;
558 -> 559 ;
560 [label="gini = 0.0\nsamples = 1\nvalue = [0, 1]"] ;
558 -> 560 ;
561 [label="X[2] <= -0.065\ngini = 0.273\nsamples = 43\nvalue = [36, 7]"] ;
557 -> 561 ;
562 [label="X[2] <= -0.068\ngini = 0.32\nsamples = 30\nvalue = [24, 6]"] ;
561 -> 562 ;
563 [label="X[0] <= -0.772\ngini = 0.285\nsamples = 29\nvalue = [24, 5]"] ;
562 -> 563 ;
564 [label="X[2] <= -0.093\ngini = 0.111\nsamples = 17\nvalue = [16, 1]"] ;
563 -> 564 ;
565 [label="gini = 0.0\nsamples = 13\nvalue = [13, 0]"] ;
564 -> 565 ;
566 [label="X[2] <= -0.088\ngini = 0.375\nsamples = 4\nvalue = [3, 1]"] ;
564 -> 566 ;
567 [label="gini = 0.0\nsamples = 1\nvalue = [0, 1]"] ;
566 -> 567 ;
568 [label="gini = 0.0\nsamples = 3\nvalue = [3, 0]"] ;
566 -> 568 ;
569 [label="X[2] <= -0.2\ngini = 0.444\nsamples = 12\nvalue = [8, 4]"] ;
563 -> 569 ;
570 [label="gini = 0.0\nsamples = 2\nvalue = [2, 0]"] ;
569 -> 570 ;
571 [label="X[0] <= -0.758\ngini = 0.48\nsamples = 10\nvalue = [6, 4]"] ;
569 -> 571 ;
572 [label="X[2] <= -0.077\ngini = 0.48\nsamples = 5\nvalue = [2, 3]"] ;
571 -> 572 ;
573 [label="X[2] <= -0.15\ngini = 0.375\nsamples = 4\nvalue = [1, 3]"] ;
572 -> 573 ;
574 [label="X[2] <= -0.183\ngini = 0.5\nsamples = 2\nvalue = [1, 1]"] ;
573 -> 574 ;
575 [label="gini = 0.0\nsamples = 1\nvalue = [0, 1]"] ;
574 -> 575 ;
576 [label="gini = 0.0\nsamples = 1\nvalue = [1, 0]"] ;
574 -> 576 ;
577 [label="gini = 0.0\nsamples = 2\nvalue = [0, 2]"] ;
573 -> 577 ;
578 [label="gini = 0.0\nsamples = 1\nvalue = [1, 0]"] ;
572 -> 578 ;
579 [label="X[2] <= -0.139\ngini = 0.32\nsamples = 5\nvalue = [4, 1]"] ;
571 -> 579 ;
580 [label="gini = 0.0\nsamples = 1\nvalue = [0, 1]"] ;
579 -> 580 ;
581 [label="gini = 0.0\nsamples = 4\nvalue = [4, 0]"] ;
579 -> 581 ;
582 [label="gini = 0.0\nsamples = 1\nvalue = [0, 1]"] ;
562 -> 582 ;
583 [label="X[2] <= 0.018\ngini = 0.142\nsamples = 13\nvalue = [12, 1]"] ;
561 -> 583 ;
584 [label="gini = 0.0\nsamples = 10\nvalue = [10, 0]"] ;
583 -> 584 ;
585 [label="X[0] <= -0.772\ngini = 0.444\nsamples = 3\nvalue = [2, 1]"] ;
583 -> 585 ;
586 [label="gini = 0.0\nsamples = 1\nvalue = [0, 1]"] ;
585 -> 586 ;
587 [label="gini = 0.0\nsamples = 2\nvalue = [2, 0]"] ;
585 -> 587 ;
588 [label="X[2] <= -0.133\ngini = 0.048\nsamples = 41\nvalue = [40, 1]"] ;
556 -> 588 ;
589 [label="X[2] <= -0.137\ngini = 0.142\nsamples = 13\nvalue = [12, 1]"] ;
588 -> 589 ;
590 [label="gini = 0.0\nsamples = 12\nvalue = [12, 0]"] ;
589 -> 590 ;
591 [label="gini = 0.0\nsamples = 1\nvalue = [0, 1]"] ;
589 -> 591 ;
592 [label="gini = 0.0\nsamples = 28\nvalue = [28, 0]"] ;
588 -> 592 ;
593 [label="X[2] <= 0.042\ngini = 0.375\nsamples = 4\nvalue = [1, 3]"] ;
555 -> 593 ;
594 [label="gini = 0.0\nsamples = 2\nvalue = [0, 2]"] ;
593 -> 594 ;
595 [label="X[2] <= 0.051\ngini = 0.5\nsamples = 2\nvalue = [1, 1]"] ;
593 -> 595 ;
596 [label="gini = 0.0\nsamples = 1\nvalue = [1, 0]"] ;
595 -> 596 ;
597 [label="gini = 0.0\nsamples = 1\nvalue = [0, 1]"] ;
595 -> 597 ;
598 [label="X[0] <= -0.744\ngini = 0.101\nsamples = 56\nvalue = [53, 3]"] ;
554 -> 598 ;
599 [label="gini = 0.0\nsamples = 40\nvalue = [40, 0]"] ;
598 -> 599 ;
600 [label="X[2] <= 0.197\ngini = 0.305\nsamples = 16\nvalue = [13, 3]"] ;
598 -> 600 ;
601 [label="X[0] <= -0.737\ngini = 0.165\nsamples = 11\nvalue = [10, 1]"] ;
600 -> 601 ;
602 [label="X[2] <= 0.104\ngini = 0.278\nsamples = 6\nvalue = [5, 1]"] ;
601 -> 602 ;
603 [label="X[2] <= 0.082\ngini = 0.5\nsamples = 2\nvalue = [1, 1]"] ;
602 -> 603 ;
604 [label="gini = 0.0\nsamples = 1\nvalue = [1, 0]"] ;
603 -> 604 ;
605 [label="gini = 0.0\nsamples = 1\nvalue = [0, 1]"] ;
603 -> 605 ;
606 [label="gini = 0.0\nsamples = 4\nvalue = [4, 0]"] ;
602 -> 606 ;
607 [label="gini = 0.0\nsamples = 5\nvalue = [5, 0]"] ;
601 -> 607 ;
608 [label="X[2] <= 0.208\ngini = 0.48\nsamples = 5\nvalue = [3, 2]"] ;
600 -> 608 ;
609 [label="gini = 0.0\nsamples = 1\nvalue = [0, 1]"] ;
608 -> 609 ;
610 [label="X[2] <= 0.264\ngini = 0.375\nsamples = 4\nvalue = [3, 1]"] ;
608 -> 610 ;
611 [label="gini = 0.0\nsamples = 2\nvalue = [2, 0]"] ;
610 -> 611 ;
612 [label="X[2] <= 0.287\ngini = 0.5\nsamples = 2\nvalue = [1, 1]"] ;
610 -> 612 ;
613 [label="gini = 0.0\nsamples = 1\nvalue = [0, 1]"] ;
612 -> 613 ;
614 [label="gini = 0.0\nsamples = 1\nvalue = [1, 0]"] ;
612 -> 614 ;
615 [label="X[0] <= -0.762\ngini = 0.48\nsamples = 10\nvalue = [6, 4]"] ;
549 -> 615 ;
616 [label="gini = 0.0\nsamples = 5\nvalue = [5, 0]"] ;
615 -> 616 ;
617 [label="X[2] <= 0.321\ngini = 0.32\nsamples = 5\nvalue = [1, 4]"] ;
615 -> 617 ;
618 [label="X[0] <= -0.726\ngini = 0.5\nsamples = 2\nvalue = [1, 1]"] ;
617 -> 618 ;
619 [label="gini = 0.0\nsamples = 1\nvalue = [1, 0]"] ;
618 -> 619 ;
620 [label="gini = 0.0\nsamples = 1\nvalue = [0, 1]"] ;
618 -> 620 ;
621 [label="gini = 0.0\nsamples = 3\nvalue = [0, 3]"] ;
617 -> 621 ;
622 [label="X[0] <= -0.639\ngini = 0.381\nsamples = 2542\nvalue = [1890, 652]"] ;
548 -> 622 ;
623 [label="X[0] <= -0.702\ngini = 0.26\nsamples = 39\nvalue = [6, 33]"] ;
622 -> 623 ;
624 [label="X[2] <= 0.009\ngini = 0.5\nsamples = 12\nvalue = [6, 6]"] ;
623 -> 624 ;
625 [label="X[2] <= -0.178\ngini = 0.469\nsamples = 8\nvalue = [3, 5]"] ;
624 -> 625 ;
626 [label="X[2] <= -0.229\ngini = 0.444\nsamples = 3\nvalue = [2, 1]"] ;
625 -> 626 ;
627 [label="gini = 0.0\nsamples = 1\nvalue = [0, 1]"] ;
626 -> 627 ;
628 [label="gini = 0.0\nsamples = 2\nvalue = [2, 0]"] ;
626 -> 628 ;
629 [label="X[2] <= -0.127\ngini = 0.32\nsamples = 5\nvalue = [1, 4]"] ;
625 -> 629 ;
630 [label="gini = 0.0\nsamples = 2\nvalue = [0, 2]"] ;
629 -> 630 ;
631 [label="X[2] <= -0.064\ngini = 0.444\nsamples = 3\nvalue = [1, 2]"] ;
629 -> 631 ;
632 [label="gini = 0.0\nsamples = 1\nvalue = [1, 0]"] ;
631 -> 632 ;
633 [label="gini = 0.0\nsamples = 2\nvalue = [0, 2]"] ;
631 -> 633 ;
634 [label="X[2] <= 0.21\ngini = 0.375\nsamples = 4\nvalue = [3, 1]"] ;
624 -> 634 ;
635 [label="gini = 0.0\nsamples = 3\nvalue = [3, 0]"] ;
634 -> 635 ;
636 [label="gini = 0.0\nsamples = 1\nvalue = [0, 1]"] ;
634 -> 636 ;
637 [label="gini = 0.0\nsamples = 27\nvalue = [0, 27]"] ;
623 -> 637 ;
638 [label="X[0] <= -0.547\ngini = 0.372\nsamples = 2503\nvalue = [1884, 619]"] ;
622 -> 638 ;
639 [label="X[2] <= 0.378\ngini = 0.245\nsamples = 217\nvalue = [186, 31]"] ;
638 -> 639 ;
640 [label="X[0] <= -0.582\ngini = 0.227\nsamples = 214\nvalue = [186, 28]"] ;
639 -> 640 ;
641 [label="X[2] <= 0.128\ngini = 0.274\nsamples = 122\nvalue = [102, 20]"] ;
640 -> 641 ;
642 [label="X[2] <= 0.122\ngini = 0.305\nsamples = 96\nvalue = [78, 18]"] ;
641 -> 642 ;
643 [label="X[0] <= -0.632\ngini = 0.282\nsamples = 94\nvalue = [78, 16]"] ;
642 -> 643 ;
644 [label="X[2] <= 0.065\ngini = 0.469\nsamples = 8\nvalue = [5, 3]"] ;
643 -> 644 ;
645 [label="X[2] <= -0.09\ngini = 0.408\nsamples = 7\nvalue = [5, 2]"] ;
644 -> 645 ;
646 [label="X[2] <= -0.184\ngini = 0.444\nsamples = 3\nvalue = [1, 2]"] ;
645 -> 646 ;
647 [label="gini = 0.0\nsamples = 1\nvalue = [1, 0]"] ;
646 -> 647 ;
648 [label="gini = 0.0\nsamples = 2\nvalue = [0, 2]"] ;
646 -> 648 ;
649 [label="gini = 0.0\nsamples = 4\nvalue = [4, 0]"] ;
645 -> 649 ;
650 [label="gini = 0.0\nsamples = 1\nvalue = [0, 1]"] ;
644 -> 650 ;
651 [label="X[2] <= -0.013\ngini = 0.257\nsamples = 86\nvalue = [73, 13]"] ;
643 -> 651 ;
652 [label="X[2] <= -0.04\ngini = 0.288\nsamples = 63\nvalue = [52, 11]"] ;
651 -> 652 ;
653 [label="X[2] <= -0.061\ngini = 0.252\nsamples = 61\nvalue = [52, 9]"] ;
652 -> 653 ;
654 [label="X[2] <= -0.067\ngini = 0.282\nsamples = 53\nvalue = [44, 9]"] ;
653 -> 654 ;
655 [label="X[2] <= -0.136\ngini = 0.237\nsamples = 51\nvalue = [44, 7]"] ;
654 -> 655 ;
656 [label="X[2] <= -0.146\ngini = 0.305\nsamples = 32\nvalue = [26, 6]"] ;
655 -> 656 ;
657 [label="X[2] <= -0.252\ngini = 0.271\nsamples = 31\nvalue = [26, 5]"] ;
656 -> 657 ;
658 [label="gini = 0.0\nsamples = 5\nvalue = [5, 0]"] ;
657 -> 658 ;
659 [label="X[2] <= -0.251\ngini = 0.311\nsamples = 26\nvalue = [21, 5]"] ;
657 -> 659 ;
660 [label="gini = 0.0\nsamples = 1\nvalue = [0, 1]"] ;
659 -> 660 ;
661 [label="X[0] <= -0.611\ngini = 0.269\nsamples = 25\nvalue = [21, 4]"] ;
659 -> 661 ;
662 [label="X[2] <= -0.154\ngini = 0.469\nsamples = 8\nvalue = [5, 3]"] ;
661 -> 662 ;
663 [label="X[0] <= -0.625\ngini = 0.408\nsamples = 7\nvalue = [5, 2]"] ;
662 -> 663 ;
664 [label="gini = 0.0\nsamples = 2\nvalue = [2, 0]"] ;
663 -> 664 ;
665 [label="X[2] <= -0.219\ngini = 0.48\nsamples = 5\nvalue = [3, 2]"] ;
663 -> 665 ;
666 [label="gini = 0.0\nsamples = 2\nvalue = [2, 0]"] ;
665 -> 666 ;
667 [label="X[2] <= -0.161\ngini = 0.444\nsamples = 3\nvalue = [1, 2]"] ;
665 -> 667 ;
668 [label="gini = 0.0\nsamples = 2\nvalue = [0, 2]"] ;
667 -> 668 ;
669 [label="gini = 0.0\nsamples = 1\nvalue = [1, 0]"] ;
667 -> 669 ;
670 [label="gini = 0.0\nsamples = 1\nvalue = [0, 1]"] ;
662 -> 670 ;
671 [label="X[0] <= -0.589\ngini = 0.111\nsamples = 17\nvalue = [16, 1]"] ;
661 -> 671 ;
672 [label="gini = 0.0\nsamples = 14\nvalue = [14, 0]"] ;
671 -> 672 ;
673 [label="X[2] <= -0.247\ngini = 0.444\nsamples = 3\nvalue = [2, 1]"] ;
671 -> 673 ;
674 [label="gini = 0.0\nsamples = 1\nvalue = [1, 0]"] ;
673 -> 674 ;
675 [label="X[2] <= -0.223\ngini = 0.5\nsamples = 2\nvalue = [1, 1]"] ;
673 -> 675 ;
676 [label="gini = 0.0\nsamples = 1\nvalue = [0, 1]"] ;
675 -> 676 ;
677 [label="gini = 0.0\nsamples = 1\nvalue = [1, 0]"] ;
675 -> 677 ;
678 [label="gini = 0.0\nsamples = 1\nvalue = [0, 1]"] ;
656 -> 678 ;
679 [label="X[2] <= -0.077\ngini = 0.1\nsamples = 19\nvalue = [18, 1]"] ;
655 -> 679 ;
680 [label="gini = 0.0\nsamples = 16\nvalue = [16, 0]"] ;
679 -> 680 ;
681 [label="X[0] <= -0.607\ngini = 0.444\nsamples = 3\nvalue = [2, 1]"] ;
679 -> 681 ;
682 [label="gini = 0.0\nsamples = 1\nvalue = [0, 1]"] ;
681 -> 682 ;
683 [label="gini = 0.0\nsamples = 2\nvalue = [2, 0]"] ;
681 -> 683 ;
684 [label="gini = 0.0\nsamples = 2\nvalue = [0, 2]"] ;
654 -> 684 ;
685 [label="gini = 0.0\nsamples = 8\nvalue = [8, 0]"] ;
653 -> 685 ;
686 [label="gini = 0.0\nsamples = 2\nvalue = [0, 2]"] ;
652 -> 686 ;
687 [label="X[2] <= 0.073\ngini = 0.159\nsamples = 23\nvalue = [21, 2]"] ;
651 -> 687 ;
688 [label="gini = 0.0\nsamples = 14\nvalue = [14, 0]"] ;
687 -> 688 ;
689 [label="X[2] <= 0.079\ngini = 0.346\nsamples = 9\nvalue = [7, 2]"] ;
687 -> 689 ;
690 [label="gini = 0.0\nsamples = 1\nvalue = [0, 1]"] ;
689 -> 690 ;
691 [label="X[0] <= -0.618\ngini = 0.219\nsamples = 8\nvalue = [7, 1]"] ;
689 -> 691 ;
692 [label="X[0] <= -0.625\ngini = 0.375\nsamples = 4\nvalue = [3, 1]"] ;
691 -> 692 ;
693 [label="gini = 0.0\nsamples = 2\nvalue = [2, 0]"] ;
692 -> 693 ;
694 [label="X[2] <= 0.104\ngini = 0.5\nsamples = 2\nvalue = [1, 1]"] ;
692 -> 694 ;
695 [label="gini = 0.0\nsamples = 1\nvalue = [0, 1]"] ;
694 -> 695 ;
696 [label="gini = 0.0\nsamples = 1\nvalue = [1, 0]"] ;
694 -> 696 ;
697 [label="gini = 0.0\nsamples = 4\nvalue = [4, 0]"] ;
691 -> 697 ;
698 [label="gini = 0.0\nsamples = 2\nvalue = [0, 2]"] ;
642 -> 698 ;
699 [label="X[0] <= -0.596\ngini = 0.142\nsamples = 26\nvalue = [24, 2]"] ;
641 -> 699 ;
700 [label="gini = 0.0\nsamples = 17\nvalue = [17, 0]"] ;
699 -> 700 ;
701 [label="X[2] <= 0.191\ngini = 0.346\nsamples = 9\nvalue = [7, 2]"] ;
699 -> 701 ;
702 [label="gini = 0.0\nsamples = 4\nvalue = [4, 0]"] ;
701 -> 702 ;
703 [label="X[0] <= -0.589\ngini = 0.48\nsamples = 5\nvalue = [3, 2]"] ;
701 -> 703 ;
704 [label="gini = 0.0\nsamples = 1\nvalue = [0, 1]"] ;
703 -> 704 ;
705 [label="X[2] <= 0.262\ngini = 0.375\nsamples = 4\nvalue = [3, 1]"] ;
703 -> 705 ;
706 [label="gini = 0.0\nsamples = 2\nvalue = [2, 0]"] ;
705 -> 706 ;
707 [label="X[2] <= 0.326\ngini = 0.5\nsamples = 2\nvalue = [1, 1]"] ;
705 -> 707 ;
708 [label="gini = 0.0\nsamples = 1\nvalue = [0, 1]"] ;
707 -> 708 ;
709 [label="gini = 0.0\nsamples = 1\nvalue = [1, 0]"] ;
707 -> 709 ;
710 [label="X[2] <= -0.078\ngini = 0.159\nsamples = 92\nvalue = [84, 8]"] ;
640 -> 710 ;
711 [label="gini = 0.0\nsamples = 35\nvalue = [35, 0]"] ;
710 -> 711 ;
712 [label="X[2] <= 0.001\ngini = 0.241\nsamples = 57\nvalue = [49, 8]"] ;
710 -> 712 ;
713 [label="X[2] <= -0.008\ngini = 0.432\nsamples = 19\nvalue = [13, 6]"] ;
712 -> 713 ;
714 [label="X[2] <= -0.075\ngini = 0.36\nsamples = 17\nvalue = [13, 4]"] ;
713 -> 714 ;
715 [label="gini = 0.0\nsamples = 1\nvalue = [0, 1]"] ;
714 -> 715 ;
716 [label="X[2] <= -0.06\ngini = 0.305\nsamples = 16\nvalue = [13, 3]"] ;
714 -> 716 ;
717 [label="gini = 0.0\nsamples = 5\nvalue = [5, 0]"] ;
716 -> 717 ;
718 [label="X[2] <= -0.055\ngini = 0.397\nsamples = 11\nvalue = [8, 3]"] ;
716 -> 718 ;
719 [label="gini = 0.0\nsamples = 1\nvalue = [0, 1]"] ;
718 -> 719 ;
720 [label="X[2] <= -0.033\ngini = 0.32\nsamples = 10\nvalue = [8, 2]"] ;
718 -> 720 ;
721 [label="gini = 0.0\nsamples = 4\nvalue = [4, 0]"] ;
720 -> 721 ;
722 [label="X[2] <= -0.024\ngini = 0.444\nsamples = 6\nvalue = [4, 2]"] ;
720 -> 722 ;
723 [label="gini = 0.0\nsamples = 2\nvalue = [0, 2]"] ;
722 -> 723 ;
724 [label="gini = 0.0\nsamples = 4\nvalue = [4, 0]"] ;
722 -> 724 ;
725 [label="gini = 0.0\nsamples = 2\nvalue = [0, 2]"] ;
713 -> 725 ;
726 [label="X[0] <= -0.561\ngini = 0.1\nsamples = 38\nvalue = [36, 2]"] ;
712 -> 726 ;
727 [label="gini = 0.0\nsamples = 27\nvalue = [27, 0]"] ;
726 -> 727 ;
728 [label="X[2] <= 0.244\ngini = 0.298\nsamples = 11\nvalue = [9, 2]"] ;
726 -> 728 ;
729 [label="X[2] <= 0.158\ngini = 0.198\nsamples = 9\nvalue = [8, 1]"] ;
728 -> 729 ;
730 [label="gini = 0.0\nsamples = 4\nvalue = [4, 0]"] ;
729 -> 730 ;
731 [label="X[2] <= 0.163\ngini = 0.32\nsamples = 5\nvalue = [4, 1]"] ;
729 -> 731 ;
732 [label="gini = 0.0\nsamples = 1\nvalue = [0, 1]"] ;
731 -> 732 ;
733 [label="gini = 0.0\nsamples = 4\nvalue = [4, 0]"] ;
731 -> 733 ;
734 [label="X[0] <= -0.554\ngini = 0.5\nsamples = 2\nvalue = [1, 1]"] ;
728 -> 734 ;
735 [label="gini = 0.0\nsamples = 1\nvalue = [0, 1]"] ;
734 -> 735 ;
736 [label="gini = 0.0\nsamples = 1\nvalue = [1, 0]"] ;
734 -> 736 ;
737 [label="gini = 0.0\nsamples = 3\nvalue = [0, 3]"] ;
639 -> 737 ;
738 [label="X[0] <= -0.463\ngini = 0.382\nsamples = 2286\nvalue = [1698, 588]"] ;
638 -> 738 ;
739 [label="X[0] <= -0.47\ngini = 0.32\nsamples = 35\nvalue = [7, 28]"] ;
738 -> 739 ;
740 [label="X[0] <= -0.53\ngini = 0.211\nsamples = 25\nvalue = [3, 22]"] ;
739 -> 740 ;
741 [label="X[2] <= 0.221\ngini = 0.49\nsamples = 7\nvalue = [3, 4]"] ;
740 -> 741 ;
742 [label="X[2] <= -0.001\ngini = 0.444\nsamples = 6\nvalue = [2, 4]"] ;
741 -> 742 ;
743 [label="X[2] <= -0.211\ngini = 0.444\nsamples = 3\nvalue = [2, 1]"] ;
742 -> 743 ;
744 [label="gini = 0.0\nsamples = 1\nvalue = [0, 1]"] ;
743 -> 744 ;
745 [label="gini = 0.0\nsamples = 2\nvalue = [2, 0]"] ;
743 -> 745 ;
746 [label="gini = 0.0\nsamples = 3\nvalue = [0, 3]"] ;
742 -> 746 ;
747 [label="gini = 0.0\nsamples = 1\nvalue = [1, 0]"] ;
741 -> 747 ;
748 [label="gini = 0.0\nsamples = 18\nvalue = [0, 18]"] ;
740 -> 748 ;
749 [label="X[2] <= -0.048\ngini = 0.48\nsamples = 10\nvalue = [4, 6]"] ;
739 -> 749 ;
750 [label="X[2] <= -0.173\ngini = 0.48\nsamples = 5\nvalue = [3, 2]"] ;
749 -> 750 ;
751 [label="X[2] <= -0.208\ngini = 0.444\nsamples = 3\nvalue = [1, 2]"] ;
750 -> 751 ;
752 [label="gini = 0.0\nsamples = 1\nvalue = [1, 0]"] ;
751 -> 752 ;
753 [label="gini = 0.0\nsamples = 2\nvalue = [0, 2]"] ;
751 -> 753 ;
754 [label="gini = 0.0\nsamples = 2\nvalue = [2, 0]"] ;
750 -> 754 ;
755 [label="X[2] <= -0.002\ngini = 0.32\nsamples = 5\nvalue = [1, 4]"] ;
749 -> 755 ;
756 [label="gini = 0.0\nsamples = 2\nvalue = [0, 2]"] ;
755 -> 756 ;
757 [label="X[2] <= 0.048\ngini = 0.444\nsamples = 3\nvalue = [1, 2]"] ;
755 -> 757 ;
758 [label="gini = 0.0\nsamples = 1\nvalue = [1, 0]"] ;
757 -> 758 ;
759 [label="gini = 0.0\nsamples = 2\nvalue = [0, 2]"] ;
757 -> 759 ;
760 [label="X[0] <= 1.139\ngini = 0.374\nsamples = 2251\nvalue = [1691, 560]"] ;
738 -> 760 ;
761 [label="X[0] <= -0.231\ngini = 0.371\nsamples = 2235\nvalue = [1685, 550]"] ;
760 -> 761 ;
762 [label="X[0] <= -0.301\ngini = 0.308\nsamples = 384\nvalue = [311, 73]"] ;
761 -> 762 ;
763 [label="X[0] <= -0.372\ngini = 0.362\nsamples = 215\nvalue = [164, 51]"] ;
762 -> 763 ;
764 [label="X[2] <= 0.19\ngini = 0.291\nsamples = 198\nvalue = [163, 35]"] ;
763 -> 764 ;
765 [label="X[0] <= -0.379\ngini = 0.242\nsamples = 170\nvalue = [146, 24]"] ;
764 -> 765 ;
766 [label="X[2] <= 0.122\ngini = 0.229\nsamples = 167\nvalue = [145, 22]"] ;
765 -> 766 ;
767 [label="X[2] <= 0.119\ngini = 0.256\nsamples = 146\nvalue = [124, 22]"] ;
766 -> 767 ;
768 [label="X[2] <= -0.028\ngini = 0.248\nsamples = 145\nvalue = [124, 21]"] ;
767 -> 768 ;
769 [label="X[0] <= -0.456\ngini = 0.194\nsamples = 101\nvalue = [90, 11]"] ;
768 -> 769 ;
770 [label="X[2] <= -0.194\ngini = 0.444\nsamples = 6\nvalue = [4, 2]"] ;
769 -> 770 ;
771 [label="gini = 0.0\nsamples = 3\nvalue = [3, 0]"] ;
770 -> 771 ;
772 [label="X[2] <= -0.119\ngini = 0.444\nsamples = 3\nvalue = [1, 2]"] ;
770 -> 772 ;
773 [label="gini = 0.0\nsamples = 2\nvalue = [0, 2]"] ;
772 -> 773 ;
774 [label="gini = 0.0\nsamples = 1\nvalue = [1, 0]"] ;
772 -> 774 ;
775 [label="X[0] <= -0.421\ngini = 0.172\nsamples = 95\nvalue = [86, 9]"] ;
769 -> 775 ;
776 [label="gini = 0.0\nsamples = 36\nvalue = [36, 0]"] ;
775 -> 776 ;
777 [label="X[0] <= -0.407\ngini = 0.259\nsamples = 59\nvalue = [50, 9]"] ;
775 -> 777 ;
778 [label="X[2] <= -0.189\ngini = 0.469\nsamples = 16\nvalue = [10, 6]"] ;
777 -> 778 ;
779 [label="gini = 0.0\nsamples = 2\nvalue = [0, 2]"] ;
778 -> 779 ;
780 [label="X[2] <= -0.13\ngini = 0.408\nsamples = 14\nvalue = [10, 4]"] ;
778 -> 780 ;
781 [label="X[2] <= -0.139\ngini = 0.469\nsamples = 8\nvalue = [5, 3]"] ;
780 -> 781 ;
782 [label="X[2] <= -0.147\ngini = 0.408\nsamples = 7\nvalue = [5, 2]"] ;
781 -> 782 ;
783 [label="X[0] <= -0.414\ngini = 0.48\nsamples = 5\nvalue = [3, 2]"] ;
782 -> 783 ;
784 [label="X[2] <= -0.181\ngini = 0.444\nsamples = 3\nvalue = [1, 2]"] ;
783 -> 784 ;
785 [label="gini = 0.0\nsamples = 1\nvalue = [1, 0]"] ;
784 -> 785 ;
786 [label="gini = 0.0\nsamples = 2\nvalue = [0, 2]"] ;
784 -> 786 ;
787 [label="gini = 0.0\nsamples = 2\nvalue = [2, 0]"] ;
783 -> 787 ;
788 [label="gini = 0.0\nsamples = 2\nvalue = [2, 0]"] ;
782 -> 788 ;
789 [label="gini = 0.0\nsamples = 1\nvalue = [0, 1]"] ;
781 -> 789 ;
790 [label="X[2] <= -0.083\ngini = 0.278\nsamples = 6\nvalue = [5, 1]"] ;
780 -> 790 ;
791 [label="gini = 0.0\nsamples = 4\nvalue = [4, 0]"] ;
790 -> 791 ;
792 [label="X[0] <= -0.414\ngini = 0.5\nsamples = 2\nvalue = [1, 1]"] ;
790 -> 792 ;
793 [label="gini = 0.0\nsamples = 1\nvalue = [1, 0]"] ;
792 -> 793 ;
794 [label="gini = 0.0\nsamples = 1\nvalue = [0, 1]"] ;
792 -> 794 ;
795 [label="X[0] <= -0.386\ngini = 0.13\nsamples = 43\nvalue = [40, 3]"] ;
777 -> 795 ;
796 [label="X[2] <= -0.221\ngini = 0.054\nsamples = 36\nvalue = [35, 1]"] ;
795 -> 796 ;
797 [label="X[2] <= -0.225\ngini = 0.198\nsamples = 9\nvalue = [8, 1]"] ;
796 -> 797 ;
798 [label="gini = 0.0\nsamples = 8\nvalue = [8, 0]"] ;
797 -> 798 ;
799 [label="gini = 0.0\nsamples = 1\nvalue = [0, 1]"] ;
797 -> 799 ;
800 [label="gini = 0.0\nsamples = 27\nvalue = [27, 0]"] ;
796 -> 800 ;
801 [label="X[2] <= -0.198\ngini = 0.408\nsamples = 7\nvalue = [5, 2]"] ;
795 -> 801 ;
802 [label="gini = 0.0\nsamples = 1\nvalue = [0, 1]"] ;
801 -> 802 ;
803 [label="X[2] <= -0.089\ngini = 0.278\nsamples = 6\nvalue = [5, 1]"] ;
801 -> 803 ;
804 [label="X[2] <= -0.097\ngini = 0.444\nsamples = 3\nvalue = [2, 1]"] ;
803 -> 804 ;
805 [label="gini = 0.0\nsamples = 2\nvalue = [2, 0]"] ;
804 -> 805 ;
806 [label="gini = 0.0\nsamples = 1\nvalue = [0, 1]"] ;
804 -> 806 ;
807 [label="gini = 0.0\nsamples = 3\nvalue = [3, 0]"] ;
803 -> 807 ;
808 [label="X[2] <= -0.02\ngini = 0.351\nsamples = 44\nvalue = [34, 10]"] ;
768 -> 808 ;
809 [label="gini = 0.0\nsamples = 2\nvalue = [0, 2]"] ;
808 -> 809 ;
810 [label="X[2] <= 0.097\ngini = 0.308\nsamples = 42\nvalue = [34, 8]"] ;
808 -> 810 ;
811 [label="X[2] <= 0.073\ngini = 0.353\nsamples = 35\nvalue = [27, 8]"] ;
810 -> 811 ;
812 [label="X[2] <= 0.024\ngini = 0.238\nsamples = 29\nvalue = [25, 4]"] ;
811 -> 812 ;
813 [label="X[0] <= -0.442\ngini = 0.391\nsamples = 15\nvalue = [11, 4]"] ;
812 -> 813 ;
814 [label="X[2] <= -0.014\ngini = 0.444\nsamples = 3\nvalue = [1, 2]"] ;
813 -> 814 ;
815 [label="gini = 0.0\nsamples = 1\nvalue = [1, 0]"] ;
814 -> 815 ;
816 [label="gini = 0.0\nsamples = 2\nvalue = [0, 2]"] ;
814 -> 816 ;
817 [label="X[2] <= 0.023\ngini = 0.278\nsamples = 12\nvalue = [10, 2]"] ;
813 -> 817 ;
818 [label="X[0] <= -0.41\ngini = 0.165\nsamples = 11\nvalue = [10, 1]"] ;
817 -> 818 ;
819 [label="gini = 0.0\nsamples = 7\nvalue = [7, 0]"] ;
818 -> 819 ;
820 [label="X[0] <= -0.4\ngini = 0.375\nsamples = 4\nvalue = [3, 1]"] ;
818 -> 820 ;
821 [label="gini = 0.0\nsamples = 1\nvalue = [0, 1]"] ;
820 -> 821 ;
822 [label="gini = 0.0\nsamples = 3\nvalue = [3, 0]"] ;
820 -> 822 ;
823 [label="gini = 0.0\nsamples = 1\nvalue = [0, 1]"] ;
817 -> 823 ;
824 [label="gini = 0.0\nsamples = 14\nvalue = [14, 0]"] ;
812 -> 824 ;
825 [label="X[0] <= -0.421\ngini = 0.444\nsamples = 6\nvalue = [2, 4]"] ;
811 -> 825 ;
826 [label="gini = 0.0\nsamples = 2\nvalue = [0, 2]"] ;
825 -> 826 ;
827 [label="X[0] <= -0.407\ngini = 0.5\nsamples = 4\nvalue = [2, 2]"] ;
825 -> 827 ;
828 [label="gini = 0.0\nsamples = 2\nvalue = [2, 0]"] ;
827 -> 828 ;
829 [label="gini = 0.0\nsamples = 2\nvalue = [0, 2]"] ;
827 -> 829 ;
830 [label="gini = 0.0\nsamples = 7\nvalue = [7, 0]"] ;
810 -> 830 ;
831 [label="gini = 0.0\nsamples = 1\nvalue = [0, 1]"] ;
767 -> 831 ;
832 [label="gini = 0.0\nsamples = 21\nvalue = [21, 0]"] ;
766 -> 832 ;
833 [label="X[2] <= -0.085\ngini = 0.444\nsamples = 3\nvalue = [1, 2]"] ;
765 -> 833 ;
834 [label="gini = 0.0\nsamples = 1\nvalue = [1, 0]"] ;
833 -> 834 ;
835 [label="gini = 0.0\nsamples = 2\nvalue = [0, 2]"] ;
833 -> 835 ;
836 [label="X[2] <= 0.276\ngini = 0.477\nsamples = 28\nvalue = [17, 11]"] ;
764 -> 836 ;
837 [label="X[0] <= -0.414\ngini = 0.486\nsamples = 12\nvalue = [5, 7]"] ;
836 -> 837 ;
838 [label="gini = 0.0\nsamples = 3\nvalue = [0, 3]"] ;
837 -> 838 ;
839 [label="X[2] <= 0.202\ngini = 0.494\nsamples = 9\nvalue = [5, 4]"] ;
837 -> 839 ;
840 [label="gini = 0.0\nsamples = 2\nvalue = [2, 0]"] ;
839 -> 840 ;
841 [label="X[2] <= 0.224\ngini = 0.49\nsamples = 7\nvalue = [3, 4]"] ;
839 -> 841 ;
842 [label="gini = 0.0\nsamples = 2\nvalue = [0, 2]"] ;
841 -> 842 ;
843 [label="X[2] <= 0.242\ngini = 0.48\nsamples = 5\nvalue = [3, 2]"] ;
841 -> 843 ;
844 [label="gini = 0.0\nsamples = 2\nvalue = [2, 0]"] ;
843 -> 844 ;
845 [label="X[2] <= 0.248\ngini = 0.444\nsamples = 3\nvalue = [1, 2]"] ;
843 -> 845 ;
846 [label="gini = 0.0\nsamples = 1\nvalue = [0, 1]"] ;
845 -> 846 ;
847 [label="X[2] <= 0.263\ngini = 0.5\nsamples = 2\nvalue = [1, 1]"] ;
845 -> 847 ;
848 [label="gini = 0.0\nsamples = 1\nvalue = [1, 0]"] ;
847 -> 848 ;
849 [label="gini = 0.0\nsamples = 1\nvalue = [0, 1]"] ;
847 -> 849 ;
850 [label="X[0] <= -0.393\ngini = 0.375\nsamples = 16\nvalue = [12, 4]"] ;
836 -> 850 ;
851 [label="X[0] <= -0.417\ngini = 0.245\nsamples = 14\nvalue = [12, 2]"] ;
850 -> 851 ;
852 [label="X[2] <= 0.359\ngini = 0.346\nsamples = 9\nvalue = [7, 2]"] ;
851 -> 852 ;
853 [label="X[2] <= 0.303\ngini = 0.245\nsamples = 7\nvalue = [6, 1]"] ;
852 -> 853 ;
854 [label="X[2] <= 0.285\ngini = 0.444\nsamples = 3\nvalue = [2, 1]"] ;
853 -> 854 ;
855 [label="gini = 0.0\nsamples = 2\nvalue = [2, 0]"] ;
854 -> 855 ;
856 [label="gini = 0.0\nsamples = 1\nvalue = [0, 1]"] ;
854 -> 856 ;
857 [label="gini = 0.0\nsamples = 4\nvalue = [4, 0]"] ;
853 -> 857 ;
858 [label="X[2] <= 0.4\ngini = 0.5\nsamples = 2\nvalue = [1, 1]"] ;
852 -> 858 ;
859 [label="gini = 0.0\nsamples = 1\nvalue = [0, 1]"] ;
858 -> 859 ;
860 [label="gini = 0.0\nsamples = 1\nvalue = [1, 0]"] ;
858 -> 860 ;
861 [label="gini = 0.0\nsamples = 5\nvalue = [5, 0]"] ;
851 -> 861 ;
862 [label="gini = 0.0\nsamples = 2\nvalue = [0, 2]"] ;
850 -> 862 ;
863 [label="X[0] <= -0.365\ngini = 0.111\nsamples = 17\nvalue = [1, 16]"] ;
763 -> 863 ;
864 [label="X[2] <= -0.038\ngini = 0.32\nsamples = 5\nvalue = [1, 4]"] ;
863 -> 864 ;
865 [label="gini = 0.0\nsamples = 3\nvalue = [0, 3]"] ;
864 -> 865 ;
866 [label="X[2] <= 0.195\ngini = 0.5\nsamples = 2\nvalue = [1, 1]"] ;
864 -> 866 ;
867 [label="gini = 0.0\nsamples = 1\nvalue = [1, 0]"] ;
866 -> 867 ;
868 [label="gini = 0.0\nsamples = 1\nvalue = [0, 1]"] ;
866 -> 868 ;
869 [label="gini = 0.0\nsamples = 12\nvalue = [0, 12]"] ;
863 -> 869 ;
870 [label="X[2] <= -0.232\ngini = 0.226\nsamples = 169\nvalue = [147, 22]"] ;
762 -> 870 ;
871 [label="X[0] <= -0.27\ngini = 0.375\nsamples = 4\nvalue = [1, 3]"] ;
870 -> 871 ;
872 [label="gini = 0.0\nsamples = 1\nvalue = [1, 0]"] ;
871 -> 872 ;
873 [label="gini = 0.0\nsamples = 3\nvalue = [0, 3]"] ;
871 -> 873 ;
874 [label="X[0] <= -0.28\ngini = 0.204\nsamples = 165\nvalue = [146, 19]"] ;
870 -> 874 ;
875 [label="X[2] <= -0.21\ngini = 0.057\nsamples = 34\nvalue = [33, 1]"] ;
874 -> 875 ;
876 [label="gini = 0.0\nsamples = 1\nvalue = [0, 1]"] ;
875 -> 876 ;
877 [label="gini = 0.0\nsamples = 33\nvalue = [33, 0]"] ;
875 -> 877 ;
878 [label="X[0] <= -0.245\ngini = 0.237\nsamples = 131\nvalue = [113, 18]"] ;
874 -> 878 ;
879 [label="X[2] <= 0.258\ngini = 0.278\nsamples = 96\nvalue = [80, 16]"] ;
878 -> 879 ;
880 [label="X[2] <= 0.24\ngini = 0.303\nsamples = 86\nvalue = [70, 16]"] ;
879 -> 880 ;
881 [label="X[2] <= -0.167\ngini = 0.291\nsamples = 85\nvalue = [70, 15]"] ;
880 -> 881 ;
882 [label="X[0] <= -0.252\ngini = 0.1\nsamples = 19\nvalue = [18, 1]"] ;
881 -> 882 ;
883 [label="gini = 0.0\nsamples = 16\nvalue = [16, 0]"] ;
882 -> 883 ;
884 [label="X[2] <= -0.212\ngini = 0.444\nsamples = 3\nvalue = [2, 1]"] ;
882 -> 884 ;
885 [label="gini = 0.0\nsamples = 1\nvalue = [0, 1]"] ;
884 -> 885 ;
886 [label="gini = 0.0\nsamples = 2\nvalue = [2, 0]"] ;
884 -> 886 ;
887 [label="X[2] <= -0.162\ngini = 0.334\nsamples = 66\nvalue = [52, 14]"] ;
881 -> 887 ;
888 [label="X[0] <= -0.263\ngini = 0.444\nsamples = 3\nvalue = [1, 2]"] ;
887 -> 888 ;
889 [label="gini = 0.0\nsamples = 2\nvalue = [0, 2]"] ;
888 -> 889 ;
890 [label="gini = 0.0\nsamples = 1\nvalue = [1, 0]"] ;
888 -> 890 ;
891 [label="X[0] <= -0.273\ngini = 0.308\nsamples = 63\nvalue = [51, 12]"] ;
887 -> 891 ;
892 [label="gini = 0.0\nsamples = 9\nvalue = [9, 0]"] ;
891 -> 892 ;
893 [label="X[2] <= 0.115\ngini = 0.346\nsamples = 54\nvalue = [42, 12]"] ;
891 -> 893 ;
894 [label="X[2] <= 0.103\ngini = 0.399\nsamples = 40\nvalue = [29, 11]"] ;
893 -> 894 ;
895 [label="X[2] <= -0.086\ngini = 0.361\nsamples = 38\nvalue = [29, 9]"] ;
894 -> 895 ;
896 [label="X[0] <= -0.266\ngini = 0.165\nsamples = 11\nvalue = [10, 1]"] ;
895 -> 896 ;
897 [label="X[2] <= -0.14\ngini = 0.5\nsamples = 2\nvalue = [1, 1]"] ;
896 -> 897 ;
898 [label="gini = 0.0\nsamples = 1\nvalue = [1, 0]"] ;
897 -> 898 ;
899 [label="gini = 0.0\nsamples = 1\nvalue = [0, 1]"] ;
897 -> 899 ;
900 [label="gini = 0.0\nsamples = 9\nvalue = [9, 0]"] ;
896 -> 900 ;
901 [label="X[2] <= -0.023\ngini = 0.417\nsamples = 27\nvalue = [19, 8]"] ;
895 -> 901 ;
902 [label="X[0] <= -0.266\ngini = 0.494\nsamples = 9\nvalue = [4, 5]"] ;
901 -> 902 ;
903 [label="X[2] <= -0.083\ngini = 0.375\nsamples = 4\nvalue = [3, 1]"] ;
902 -> 903 ;
904 [label="gini = 0.0\nsamples = 1\nvalue = [0, 1]"] ;
903 -> 904 ;
905 [label="gini = 0.0\nsamples = 3\nvalue = [3, 0]"] ;
903 -> 905 ;
906 [label="X[2] <= -0.076\ngini = 0.32\nsamples = 5\nvalue = [1, 4]"] ;
902 -> 906 ;
907 [label="X[2] <= -0.079\ngini = 0.5\nsamples = 2\nvalue = [1, 1]"] ;
906 -> 907 ;
908 [label="gini = 0.0\nsamples = 1\nvalue = [0, 1]"] ;
907 -> 908 ;
909 [label="gini = 0.0\nsamples = 1\nvalue = [1, 0]"] ;
907 -> 909 ;
910 [label="gini = 0.0\nsamples = 3\nvalue = [0, 3]"] ;
906 -> 910 ;
911 [label="X[0] <= -0.259\ngini = 0.278\nsamples = 18\nvalue = [15, 3]"] ;
901 -> 911 ;
912 [label="X[2] <= 0.046\ngini = 0.42\nsamples = 10\nvalue = [7, 3]"] ;
911 -> 912 ;
913 [label="X[2] <= 0.017\ngini = 0.278\nsamples = 6\nvalue = [5, 1]"] ;
912 -> 913 ;
914 [label="X[0] <= -0.266\ngini = 0.444\nsamples = 3\nvalue = [2, 1]"] ;
913 -> 914 ;
915 [label="gini = 0.0\nsamples = 1\nvalue = [0, 1]"] ;
914 -> 915 ;
916 [label="gini = 0.0\nsamples = 2\nvalue = [2, 0]"] ;
914 -> 916 ;
917 [label="gini = 0.0\nsamples = 3\nvalue = [3, 0]"] ;
913 -> 917 ;
918 [label="X[2] <= 0.064\ngini = 0.5\nsamples = 4\nvalue = [2, 2]"] ;
912 -> 918 ;
919 [label="gini = 0.0\nsamples = 1\nvalue = [0, 1]"] ;
918 -> 919 ;
920 [label="X[2] <= 0.08\ngini = 0.444\nsamples = 3\nvalue = [2, 1]"] ;
918 -> 920 ;
921 [label="gini = 0.0\nsamples = 1\nvalue = [1, 0]"] ;
920 -> 921 ;
922 [label="X[2] <= 0.095\ngini = 0.5\nsamples = 2\nvalue = [1, 1]"] ;
920 -> 922 ;
923 [label="gini = 0.0\nsamples = 1\nvalue = [0, 1]"] ;
922 -> 923 ;
924 [label="gini = 0.0\nsamples = 1\nvalue = [1, 0]"] ;
922 -> 924 ;
925 [label="gini = 0.0\nsamples = 8\nvalue = [8, 0]"] ;
911 -> 925 ;
926 [label="gini = 0.0\nsamples = 2\nvalue = [0, 2]"] ;
894 -> 926 ;
927 [label="X[2] <= 0.184\ngini = 0.133\nsamples = 14\nvalue = [13, 1]"] ;
893 -> 927 ;
928 [label="gini = 0.0\nsamples = 11\nvalue = [11, 0]"] ;
927 -> 928 ;
929 [label="X[2] <= 0.19\ngini = 0.444\nsamples = 3\nvalue = [2, 1]"] ;
927 -> 929 ;
930 [label="gini = 0.0\nsamples = 1\nvalue = [0, 1]"] ;
929 -> 930 ;
931 [label="gini = 0.0\nsamples = 2\nvalue = [2, 0]"] ;
929 -> 931 ;
932 [label="gini = 0.0\nsamples = 1\nvalue = [0, 1]"] ;
880 -> 932 ;
933 [label="gini = 0.0\nsamples = 10\nvalue = [10, 0]"] ;
879 -> 933 ;
934 [label="X[2] <= 0.236\ngini = 0.108\nsamples = 35\nvalue = [33, 2]"] ;
878 -> 934 ;
935 [label="X[2] <= -0.137\ngini = 0.064\nsamples = 30\nvalue = [29, 1]"] ;
934 -> 935 ;
936 [label="X[2] <= -0.146\ngini = 0.18\nsamples = 10\nvalue = [9, 1]"] ;
935 -> 936 ;
937 [label="gini = 0.0\nsamples = 9\nvalue = [9, 0]"] ;
936 -> 937 ;
938 [label="gini = 0.0\nsamples = 1\nvalue = [0, 1]"] ;
936 -> 938 ;
939 [label="gini = 0.0\nsamples = 20\nvalue = [20, 0]"] ;
935 -> 939 ;
940 [label="X[2] <= 0.259\ngini = 0.32\nsamples = 5\nvalue = [4, 1]"] ;
934 -> 940 ;
941 [label="gini = 0.0\nsamples = 1\nvalue = [0, 1]"] ;
940 -> 941 ;
942 [label="gini = 0.0\nsamples = 4\nvalue = [4, 0]"] ;
940 -> 942 ;
943 [label="X[0] <= -0.133\ngini = 0.383\nsamples = 1851\nvalue = [1374, 477]"] ;
761 -> 943 ;
944 [label="X[0] <= -0.189\ngini = 0.5\nsamples = 74\nvalue = [38, 36]"] ;
943 -> 944 ;
945 [label="X[2] <= 0.189\ngini = 0.452\nsamples = 58\nvalue = [38, 20]"] ;
944 -> 945 ;
946 [label="X[2] <= -0.2\ngini = 0.398\nsamples = 51\nvalue = [37, 14]"] ;
945 -> 946 ;
947 [label="X[0] <= -0.203\ngini = 0.486\nsamples = 12\nvalue = [5, 7]"] ;
946 -> 947 ;
948 [label="X[2] <= -0.209\ngini = 0.494\nsamples = 9\nvalue = [5, 4]"] ;
947 -> 948 ;
949 [label="X[2] <= -0.231\ngini = 0.469\nsamples = 8\nvalue = [5, 3]"] ;
948 -> 949 ;
950 [label="X[2] <= -0.239\ngini = 0.5\nsamples = 6\nvalue = [3, 3]"] ;
949 -> 950 ;
951 [label="X[2] <= -0.245\ngini = 0.375\nsamples = 4\nvalue = [3, 1]"] ;
950 -> 951 ;
952 [label="X[2] <= -0.247\ngini = 0.5\nsamples = 2\nvalue = [1, 1]"] ;
951 -> 952 ;
953 [label="gini = 0.0\nsamples = 1\nvalue = [1, 0]"] ;
952 -> 953 ;
954 [label="gini = 0.0\nsamples = 1\nvalue = [0, 1]"] ;
952 -> 954 ;
955 [label="gini = 0.0\nsamples = 2\nvalue = [2, 0]"] ;
951 -> 955 ;
956 [label="gini = 0.0\nsamples = 2\nvalue = [0, 2]"] ;
950 -> 956 ;
957 [label="gini = 0.0\nsamples = 2\nvalue = [2, 0]"] ;
949 -> 957 ;
958 [label="gini = 0.0\nsamples = 1\nvalue = [0, 1]"] ;
948 -> 958 ;
959 [label="gini = 0.0\nsamples = 3\nvalue = [0, 3]"] ;
947 -> 959 ;
960 [label="X[2] <= 0.017\ngini = 0.295\nsamples = 39\nvalue = [32, 7]"] ;
946 -> 960 ;
961 [label="X[2] <= 0.005\ngini = 0.358\nsamples = 30\nvalue = [23, 7]"] ;
960 -> 961 ;
962 [label="X[0] <= -0.21\ngini = 0.328\nsamples = 29\nvalue = [23, 6]"] ;
961 -> 962 ;
963 [label="X[2] <= -0.135\ngini = 0.269\nsamples = 25\nvalue = [21, 4]"] ;
962 -> 963 ;
964 [label="X[2] <= -0.144\ngini = 0.408\nsamples = 7\nvalue = [5, 2]"] ;
963 -> 964 ;
965 [label="X[0] <= -0.224\ngini = 0.278\nsamples = 6\nvalue = [5, 1]"] ;
964 -> 965 ;
966 [label="X[2] <= -0.177\ngini = 0.444\nsamples = 3\nvalue = [2, 1]"] ;
965 -> 966 ;
967 [label="gini = 0.0\nsamples = 1\nvalue = [1, 0]"] ;
966 -> 967 ;
968 [label="X[2] <= -0.174\ngini = 0.5\nsamples = 2\nvalue = [1, 1]"] ;
966 -> 968 ;
969 [label="gini = 0.0\nsamples = 1\nvalue = [0, 1]"] ;
968 -> 969 ;
970 [label="gini = 0.0\nsamples = 1\nvalue = [1, 0]"] ;
968 -> 970 ;
971 [label="gini = 0.0\nsamples = 3\nvalue = [3, 0]"] ;
965 -> 971 ;
972 [label="gini = 0.0\nsamples = 1\nvalue = [0, 1]"] ;
964 -> 972 ;
973 [label="X[2] <= -0.044\ngini = 0.198\nsamples = 18\nvalue = [16, 2]"] ;
963 -> 973 ;
974 [label="gini = 0.0\nsamples = 11\nvalue = [11, 0]"] ;
973 -> 974 ;
975 [label="X[2] <= -0.036\ngini = 0.408\nsamples = 7\nvalue = [5, 2]"] ;
973 -> 975 ;
976 [label="gini = 0.0\nsamples = 1\nvalue = [0, 1]"] ;
975 -> 976 ;
977 [label="X[2] <= -0.02\ngini = 0.278\nsamples = 6\nvalue = [5, 1]"] ;
975 -> 977 ;
978 [label="X[2] <= -0.023\ngini = 0.444\nsamples = 3\nvalue = [2, 1]"] ;
977 -> 978 ;
979 [label="gini = 0.0\nsamples = 2\nvalue = [2, 0]"] ;
978 -> 979 ;
980 [label="gini = 0.0\nsamples = 1\nvalue = [0, 1]"] ;
978 -> 980 ;
981 [label="gini = 0.0\nsamples = 3\nvalue = [3, 0]"] ;
977 -> 981 ;
982 [label="X[2] <= -0.13\ngini = 0.5\nsamples = 4\nvalue = [2, 2]"] ;
962 -> 982 ;
983 [label="gini = 0.0\nsamples = 2\nvalue = [2, 0]"] ;
982 -> 983 ;
984 [label="gini = 0.0\nsamples = 2\nvalue = [0, 2]"] ;
982 -> 984 ;
985 [label="gini = 0.0\nsamples = 1\nvalue = [0, 1]"] ;
961 -> 985 ;
986 [label="gini = 0.0\nsamples = 9\nvalue = [9, 0]"] ;
960 -> 986 ;
987 [label="X[0] <= -0.217\ngini = 0.245\nsamples = 7\nvalue = [1, 6]"] ;
945 -> 987 ;
988 [label="gini = 0.0\nsamples = 4\nvalue = [0, 4]"] ;
987 -> 988 ;
989 [label="X[0] <= -0.207\ngini = 0.444\nsamples = 3\nvalue = [1, 2]"] ;
987 -> 989 ;
990 [label="gini = 0.0\nsamples = 1\nvalue = [1, 0]"] ;
989 -> 990 ;
991 [label="gini = 0.0\nsamples = 2\nvalue = [0, 2]"] ;
989 -> 991 ;
992 [label="gini = 0.0\nsamples = 16\nvalue = [0, 16]"] ;
944 -> 992 ;
993 [label="X[0] <= 0.373\ngini = 0.373\nsamples = 1777\nvalue = [1336, 441]"] ;
943 -> 993 ;
994 [label="X[0] <= 0.31\ngini = 0.411\nsamples = 667\nvalue = [474, 193]"] ;
993 -> 994 ;
995 [label="X[0] <= 0.12\ngini = 0.388\nsamples = 643\nvalue = [474, 169]"] ;
994 -> 995 ;
996 [label="X[0] <= 0.05\ngini = 0.345\nsamples = 429\nvalue = [334, 95]"] ;
995 -> 996 ;
997 [label="X[0] <= -0.034\ngini = 0.391\nsamples = 278\nvalue = [204, 74]"] ;
996 -> 997 ;
998 [label="X[2] <= -0.095\ngini = 0.31\nsamples = 229\nvalue = [185, 44]"] ;
997 -> 998 ;
999 [label="X[2] <= -0.176\ngini = 0.378\nsamples = 95\nvalue = [71, 24]"] ;
998 -> 999 ;
1000 [label="X[2] <= -0.218\ngini = 0.289\nsamples = 57\nvalue = [47, 10]"] ;
999 -> 1000 ;
1001 [label="X[2] <= -0.221\ngini = 0.367\nsamples = 33\nvalue = [25, 8]"] ;
1000 -> 1001 ;
1002 [label="X[2] <= -0.237\ngini = 0.312\nsamples = 31\nvalue = [25, 6]"] ;
1001 -> 1002 ;
1003 [label="X[2] <= -0.242\ngini = 0.18\nsamples = 20\nvalue = [18, 2]"] ;
1002 -> 1003 ;
1004 [label="X[2] <= -0.243\ngini = 0.32\nsamples = 10\nvalue = [8, 2]"] ;
1003 -> 1004 ;
1005 [label="X[0] <= -0.115\ngini = 0.198\nsamples = 9\nvalue = [8, 1]"] ;
1004 -> 1005 ;
1006 [label="X[2] <= -0.251\ngini = 0.444\nsamples = 3\nvalue = [2, 1]"] ;
1005 -> 1006 ;
1007 [label="gini = 0.0\nsamples = 1\nvalue = [1, 0]"] ;
1006 -> 1007 ;
1008 [label="X[2] <= -0.247\ngini = 0.5\nsamples = 2\nvalue = [1, 1]"] ;
1006 -> 1008 ;
1009 [label="gini = 0.0\nsamples = 1\nvalue = [0, 1]"] ;
1008 -> 1009 ;
1010 [label="gini = 0.0\nsamples = 1\nvalue = [1, 0]"] ;
1008 -> 1010 ;
1011 [label="gini = 0.0\nsamples = 6\nvalue = [6, 0]"] ;
1005 -> 1011 ;
1012 [label="gini = 0.0\nsamples = 1\nvalue = [0, 1]"] ;
1004 -> 1012 ;
1013 [label="gini = 0.0\nsamples = 10\nvalue = [10, 0]"] ;
1003 -> 1013 ;
1014 [label="X[2] <= -0.235\ngini = 0.463\nsamples = 11\nvalue = [7, 4]"] ;
1002 -> 1014 ;
1015 [label="gini = 0.0\nsamples = 2\nvalue = [0, 2]"] ;
1014 -> 1015 ;
1016 [label="X[0] <= -0.087\ngini = 0.346\nsamples = 9\nvalue = [7, 2]"] ;
1014 -> 1016 ;
1017 [label="X[0] <= -0.108\ngini = 0.48\nsamples = 5\nvalue = [3, 2]"] ;
1016 -> 1017 ;
1018 [label="gini = 0.0\nsamples = 2\nvalue = [2, 0]"] ;
1017 -> 1018 ;
1019 [label="X[0] <= -0.098\ngini = 0.444\nsamples = 3\nvalue = [1, 2]"] ;
1017 -> 1019 ;
1020 [label="X[2] <= -0.232\ngini = 0.5\nsamples = 2\nvalue = [1, 1]"] ;
1019 -> 1020 ;
1021 [label="gini = 0.0\nsamples = 1\nvalue = [0, 1]"] ;
1020 -> 1021 ;
1022 [label="gini = 0.0\nsamples = 1\nvalue = [1, 0]"] ;
1020 -> 1022 ;
1023 [label="gini = 0.0\nsamples = 1\nvalue = [0, 1]"] ;
1019 -> 1023 ;
1024 [label="gini = 0.0\nsamples = 4\nvalue = [4, 0]"] ;
1016 -> 1024 ;
1025 [label="gini = 0.0\nsamples = 2\nvalue = [0, 2]"] ;
1001 -> 1025 ;
1026 [label="X[0] <= -0.045\ngini = 0.153\nsamples = 24\nvalue = [22, 2]"] ;
1000 -> 1026 ;
1027 [label="X[0] <= -0.055\ngini = 0.083\nsamples = 23\nvalue = [22, 1]"] ;
1026 -> 1027 ;
1028 [label="gini = 0.0\nsamples = 20\nvalue = [20, 0]"] ;
1027 -> 1028 ;
1029 [label="X[2] <= -0.187\ngini = 0.444\nsamples = 3\nvalue = [2, 1]"] ;
1027 -> 1029 ;
1030 [label="gini = 0.0\nsamples = 1\nvalue = [1, 0]"] ;
1029 -> 1030 ;
1031 [label="X[2] <= -0.183\ngini = 0.5\nsamples = 2\nvalue = [1, 1]"] ;
1029 -> 1031 ;
1032 [label="gini = 0.0\nsamples = 1\nvalue = [0, 1]"] ;
1031 -> 1032 ;
1033 [label="gini = 0.0\nsamples = 1\nvalue = [1, 0]"] ;
1031 -> 1033 ;
1034 [label="gini = 0.0\nsamples = 1\nvalue = [0, 1]"] ;
1026 -> 1034 ;
1035 [label="X[0] <= -0.07\ngini = 0.465\nsamples = 38\nvalue = [24, 14]"] ;
999 -> 1035 ;
1036 [label="X[2] <= -0.101\ngini = 0.494\nsamples = 18\nvalue = [8, 10]"] ;
1035 -> 1036 ;
1037 [label="X[2] <= -0.108\ngini = 0.5\nsamples = 16\nvalue = [8, 8]"] ;
1036 -> 1037 ;
1038 [label="X[0] <= -0.084\ngini = 0.473\nsamples = 13\nvalue = [5, 8]"] ;
1037 -> 1038 ;
1039 [label="X[0] <= -0.098\ngini = 0.444\nsamples = 12\nvalue = [4, 8]"] ;
1038 -> 1039 ;
1040 [label="X[0] <= -0.112\ngini = 0.5\nsamples = 8\nvalue = [4, 4]"] ;
1039 -> 1040 ;
1041 [label="X[2] <= -0.15\ngini = 0.444\nsamples = 6\nvalue = [2, 4]"] ;
1040 -> 1041 ;
1042 [label="gini = 0.0\nsamples = 3\nvalue = [0, 3]"] ;
1041 -> 1042 ;
1043 [label="X[0] <= -0.122\ngini = 0.444\nsamples = 3\nvalue = [2, 1]"] ;
1041 -> 1043 ;
1044 [label="gini = 0.0\nsamples = 2\nvalue = [2, 0]"] ;
1043 -> 1044 ;
1045 [label="gini = 0.0\nsamples = 1\nvalue = [0, 1]"] ;
1043 -> 1045 ;
1046 [label="gini = 0.0\nsamples = 2\nvalue = [2, 0]"] ;
1040 -> 1046 ;
1047 [label="gini = 0.0\nsamples = 4\nvalue = [0, 4]"] ;
1039 -> 1047 ;
1048 [label="gini = 0.0\nsamples = 1\nvalue = [1, 0]"] ;
1038 -> 1048 ;
1049 [label="gini = 0.0\nsamples = 3\nvalue = [3, 0]"] ;
1037 -> 1049 ;
1050 [label="gini = 0.0\nsamples = 2\nvalue = [0, 2]"] ;
1036 -> 1050 ;
1051 [label="X[2] <= -0.165\ngini = 0.32\nsamples = 20\nvalue = [16, 4]"] ;
1035 -> 1051 ;
1052 [label="gini = 0.0\nsamples = 2\nvalue = [0, 2]"] ;
1051 -> 1052 ;
1053 [label="X[2] <= -0.123\ngini = 0.198\nsamples = 18\nvalue = [16, 2]"] ;
1051 -> 1053 ;
1054 [label="gini = 0.0\nsamples = 10\nvalue = [10, 0]"] ;
1053 -> 1054 ;
1055 [label="X[0] <= -0.048\ngini = 0.375\nsamples = 8\nvalue = [6, 2]"] ;
1053 -> 1055 ;
1056 [label="X[2] <= -0.099\ngini = 0.245\nsamples = 7\nvalue = [6, 1]"] ;
1055 -> 1056 ;
1057 [label="gini = 0.0\nsamples = 4\nvalue = [4, 0]"] ;
1056 -> 1057 ;
1058 [label="X[2] <= -0.097\ngini = 0.444\nsamples = 3\nvalue = [2, 1]"] ;
1056 -> 1058 ;
1059 [label="gini = 0.0\nsamples = 1\nvalue = [0, 1]"] ;
1058 -> 1059 ;
1060 [label="gini = 0.0\nsamples = 2\nvalue = [2, 0]"] ;
1058 -> 1060 ;
1061 [label="gini = 0.0\nsamples = 1\nvalue = [0, 1]"] ;
1055 -> 1061 ;
1062 [label="X[0] <= -0.041\ngini = 0.254\nsamples = 134\nvalue = [114, 20]"] ;
998 -> 1062 ;
1063 [label="X[2] <= -0.007\ngini = 0.233\nsamples = 126\nvalue = [109, 17]"] ;
1062 -> 1063 ;
1064 [label="X[2] <= -0.037\ngini = 0.108\nsamples = 35\nvalue = [33, 2]"] ;
1063 -> 1064 ;
1065 [label="X[2] <= -0.039\ngini = 0.198\nsamples = 18\nvalue = [16, 2]"] ;
1064 -> 1065 ;
1066 [label="X[0] <= -0.098\ngini = 0.111\nsamples = 17\nvalue = [16, 1]"] ;
1065 -> 1066 ;
1067 [label="X[0] <= -0.108\ngini = 0.32\nsamples = 5\nvalue = [4, 1]"] ;
1066 -> 1067 ;
1068 [label="gini = 0.0\nsamples = 4\nvalue = [4, 0]"] ;
1067 -> 1068 ;
1069 [label="gini = 0.0\nsamples = 1\nvalue = [0, 1]"] ;
1067 -> 1069 ;
1070 [label="gini = 0.0\nsamples = 12\nvalue = [12, 0]"] ;
1066 -> 1070 ;
1071 [label="gini = 0.0\nsamples = 1\nvalue = [0, 1]"] ;
1065 -> 1071 ;
1072 [label="gini = 0.0\nsamples = 17\nvalue = [17, 0]"] ;
1064 -> 1072 ;
1073 [label="X[2] <= -0.005\ngini = 0.275\nsamples = 91\nvalue = [76, 15]"] ;
1063 -> 1073 ;
1074 [label="gini = 0.0\nsamples = 1\nvalue = [0, 1]"] ;
1073 -> 1074 ;
1075 [label="X[2] <= 0.37\ngini = 0.263\nsamples = 90\nvalue = [76, 14]"] ;
1073 -> 1075 ;
1076 [label="X[2] <= 0.361\ngini = 0.283\nsamples = 82\nvalue = [68, 14]"] ;
1075 -> 1076 ;
1077 [label="X[2] <= 0.296\ngini = 0.269\nsamples = 81\nvalue = [68, 13]"] ;
1076 -> 1077 ;
1078 [label="X[2] <= 0.29\ngini = 0.293\nsamples = 73\nvalue = [60, 13]"] ;
1077 -> 1078 ;
1079 [label="X[2] <= 0.234\ngini = 0.278\nsamples = 72\nvalue = [60, 12]"] ;
1078 -> 1079 ;
1080 [label="X[2] <= 0.227\ngini = 0.301\nsamples = 65\nvalue = [53, 12]"] ;
1079 -> 1080 ;
1081 [label="X[0] <= -0.063\ngini = 0.271\nsamples = 62\nvalue = [52, 10]"] ;
1080 -> 1081 ;
1082 [label="X[2] <= 0.161\ngini = 0.32\nsamples = 45\nvalue = [36, 9]"] ;
1081 -> 1082 ;
1083 [label="X[2] <= 0.14\ngini = 0.397\nsamples = 33\nvalue = [24, 9]"] ;
1082 -> 1083 ;
1084 [label="X[0] <= -0.112\ngini = 0.32\nsamples = 30\nvalue = [24, 6]"] ;
1083 -> 1084 ;
1085 [label="X[2] <= 0.029\ngini = 0.469\nsamples = 8\nvalue = [5, 3]"] ;
1084 -> 1085 ;
1086 [label="gini = 0.0\nsamples = 2\nvalue = [0, 2]"] ;
1085 -> 1086 ;
1087 [label="X[2] <= 0.083\ngini = 0.278\nsamples = 6\nvalue = [5, 1]"] ;
1085 -> 1087 ;
1088 [label="gini = 0.0\nsamples = 3\nvalue = [3, 0]"] ;
1087 -> 1088 ;
1089 [label="X[2] <= 0.112\ngini = 0.444\nsamples = 3\nvalue = [2, 1]"] ;
1087 -> 1089 ;
1090 [label="gini = 0.0\nsamples = 1\nvalue = [0, 1]"] ;
1089 -> 1090 ;
1091 [label="gini = 0.0\nsamples = 2\nvalue = [2, 0]"] ;
1089 -> 1091 ;
1092 [label="X[0] <= -0.07\ngini = 0.236\nsamples = 22\nvalue = [19, 3]"] ;
1084 -> 1092 ;
1093 [label="X[2] <= 0.132\ngini = 0.117\nsamples = 16\nvalue = [15, 1]"] ;
1092 -> 1093 ;
1094 [label="gini = 0.0\nsamples = 12\nvalue = [12, 0]"] ;
1093 -> 1094 ;
1095 [label="X[2] <= 0.135\ngini = 0.375\nsamples = 4\nvalue = [3, 1]"] ;
1093 -> 1095 ;
1096 [label="gini = 0.0\nsamples = 1\nvalue = [0, 1]"] ;
1095 -> 1096 ;
1097 [label="gini = 0.0\nsamples = 3\nvalue = [3, 0]"] ;
1095 -> 1097 ;
1098 [label="X[2] <= 0.039\ngini = 0.444\nsamples = 6\nvalue = [4, 2]"] ;
1092 -> 1098 ;
1099 [label="gini = 0.0\nsamples = 4\nvalue = [4, 0]"] ;
1098 -> 1099 ;
1100 [label="gini = 0.0\nsamples = 2\nvalue = [0, 2]"] ;
1098 -> 1100 ;
1101 [label="gini = 0.0\nsamples = 3\nvalue = [0, 3]"] ;
1083 -> 1101 ;
1102 [label="gini = 0.0\nsamples = 12\nvalue = [12, 0]"] ;
1082 -> 1102 ;
1103 [label="X[2] <= 0.208\ngini = 0.111\nsamples = 17\nvalue = [16, 1]"] ;
1081 -> 1103 ;
1104 [label="gini = 0.0\nsamples = 16\nvalue = [16, 0]"] ;
1103 -> 1104 ;
1105 [label="gini = 0.0\nsamples = 1\nvalue = [0, 1]"] ;
1103 -> 1105 ;
1106 [label="X[2] <= 0.23\ngini = 0.444\nsamples = 3\nvalue = [1, 2]"] ;
1080 -> 1106 ;
1107 [label="gini = 0.0\nsamples = 1\nvalue = [0, 1]"] ;
1106 -> 1107 ;
1108 [label="X[2] <= 0.233\ngini = 0.5\nsamples = 2\nvalue = [1, 1]"] ;
1106 -> 1108 ;
1109 [label="gini = 0.0\nsamples = 1\nvalue = [1, 0]"] ;
1108 -> 1109 ;
1110 [label="gini = 0.0\nsamples = 1\nvalue = [0, 1]"] ;
1108 -> 1110 ;
1111 [label="gini = 0.0\nsamples = 7\nvalue = [7, 0]"] ;
1079 -> 1111 ;
1112 [label="gini = 0.0\nsamples = 1\nvalue = [0, 1]"] ;
1078 -> 1112 ;
1113 [label="gini = 0.0\nsamples = 8\nvalue = [8, 0]"] ;
1077 -> 1113 ;
1114 [label="gini = 0.0\nsamples = 1\nvalue = [0, 1]"] ;
1076 -> 1114 ;
1115 [label="gini = 0.0\nsamples = 8\nvalue = [8, 0]"] ;
1075 -> 1115 ;
1116 [label="X[2] <= 0.039\ngini = 0.469\nsamples = 8\nvalue = [5, 3]"] ;
1062 -> 1116 ;
1117 [label="X[2] <= -0.071\ngini = 0.32\nsamples = 5\nvalue = [4, 1]"] ;
1116 -> 1117 ;
1118 [label="X[2] <= -0.076\ngini = 0.5\nsamples = 2\nvalue = [1, 1]"] ;
1117 -> 1118 ;
1119 [label="gini = 0.0\nsamples = 1\nvalue = [1, 0]"] ;
1118 -> 1119 ;
1120 [label="gini = 0.0\nsamples = 1\nvalue = [0, 1]"] ;
1118 -> 1120 ;
1121 [label="gini = 0.0\nsamples = 3\nvalue = [3, 0]"] ;
1117 -> 1121 ;
1122 [label="X[2] <= 0.148\ngini = 0.444\nsamples = 3\nvalue = [1, 2]"] ;
1116 -> 1122 ;
1123 [label="gini = 0.0\nsamples = 2\nvalue = [0, 2]"] ;
1122 -> 1123 ;
1124 [label="gini = 0.0\nsamples = 1\nvalue = [1, 0]"] ;
1122 -> 1124 ;
1125 [label="X[0] <= 0.043\ngini = 0.475\nsamples = 49\nvalue = [19, 30]"] ;
997 -> 1125 ;
1126 [label="X[2] <= -0.081\ngini = 0.285\nsamples = 29\nvalue = [5, 24]"] ;
1125 -> 1126 ;
1127 [label="X[2] <= -0.215\ngini = 0.117\nsamples = 16\nvalue = [1, 15]"] ;
1126 -> 1127 ;
1128 [label="X[2] <= -0.237\ngini = 0.5\nsamples = 2\nvalue = [1, 1]"] ;
1127 -> 1128 ;
1129 [label="gini = 0.0\nsamples = 1\nvalue = [0, 1]"] ;
1128 -> 1129 ;
1130 [label="gini = 0.0\nsamples = 1\nvalue = [1, 0]"] ;
1128 -> 1130 ;
1131 [label="gini = 0.0\nsamples = 14\nvalue = [0, 14]"] ;
1127 -> 1131 ;
1132 [label="X[2] <= 0.096\ngini = 0.426\nsamples = 13\nvalue = [4, 9]"] ;
1126 -> 1132 ;
1133 [label="gini = 0.0\nsamples = 2\nvalue = [2, 0]"] ;
1132 -> 1133 ;
1134 [label="X[2] <= 0.14\ngini = 0.298\nsamples = 11\nvalue = [2, 9]"] ;
1132 -> 1134 ;
1135 [label="X[0] <= 0.008\ngini = 0.5\nsamples = 2\nvalue = [1, 1]"] ;
1134 -> 1135 ;
1136 [label="gini = 0.0\nsamples = 1\nvalue = [0, 1]"] ;
1135 -> 1136 ;
1137 [label="gini = 0.0\nsamples = 1\nvalue = [1, 0]"] ;
1135 -> 1137 ;
1138 [label="X[0] <= -0.013\ngini = 0.198\nsamples = 9\nvalue = [1, 8]"] ;
1134 -> 1138 ;
1139 [label="X[2] <= 0.277\ngini = 0.444\nsamples = 3\nvalue = [1, 2]"] ;
1138 -> 1139 ;
1140 [label="gini = 0.0\nsamples = 1\nvalue = [0, 1]"] ;
1139 -> 1140 ;
1141 [label="X[0] <= -0.024\ngini = 0.5\nsamples = 2\nvalue = [1, 1]"] ;
1139 -> 1141 ;
1142 [label="gini = 0.0\nsamples = 1\nvalue = [0, 1]"] ;
1141 -> 1142 ;
1143 [label="gini = 0.0\nsamples = 1\nvalue = [1, 0]"] ;
1141 -> 1143 ;
1144 [label="gini = 0.0\nsamples = 6\nvalue = [0, 6]"] ;
1138 -> 1144 ;
1145 [label="X[2] <= 0.149\ngini = 0.42\nsamples = 20\nvalue = [14, 6]"] ;
1125 -> 1145 ;
1146 [label="X[2] <= -0.054\ngini = 0.469\nsamples = 16\nvalue = [10, 6]"] ;
1145 -> 1146 ;
1147 [label="X[2] <= -0.191\ngini = 0.298\nsamples = 11\nvalue = [9, 2]"] ;
1146 -> 1147 ;
1148 [label="X[2] <= -0.213\ngini = 0.5\nsamples = 2\nvalue = [1, 1]"] ;
1147 -> 1148 ;
1149 [label="gini = 0.0\nsamples = 1\nvalue = [1, 0]"] ;
1148 -> 1149 ;
1150 [label="gini = 0.0\nsamples = 1\nvalue = [0, 1]"] ;
1148 -> 1150 ;
1151 [label="X[2] <= -0.109\ngini = 0.198\nsamples = 9\nvalue = [8, 1]"] ;
1147 -> 1151 ;
1152 [label="gini = 0.0\nsamples = 5\nvalue = [5, 0]"] ;
1151 -> 1152 ;
1153 [label="X[2] <= -0.108\ngini = 0.375\nsamples = 4\nvalue = [3, 1]"] ;
1151 -> 1153 ;
1154 [label="gini = 0.0\nsamples = 1\nvalue = [0, 1]"] ;
1153 -> 1154 ;
1155 [label="gini = 0.0\nsamples = 3\nvalue = [3, 0]"] ;
1153 -> 1155 ;
1156 [label="X[2] <= 0.006\ngini = 0.32\nsamples = 5\nvalue = [1, 4]"] ;
1146 -> 1156 ;
1157 [label="gini = 0.0\nsamples = 3\nvalue = [0, 3]"] ;
1156 -> 1157 ;
1158 [label="X[2] <= 0.036\ngini = 0.5\nsamples = 2\nvalue = [1, 1]"] ;
1156 -> 1158 ;
1159 [label="gini = 0.0\nsamples = 1\nvalue = [1, 0]"] ;
1158 -> 1159 ;
1160 [label="gini = 0.0\nsamples = 1\nvalue = [0, 1]"] ;
1158 -> 1160 ;
1161 [label="gini = 0.0\nsamples = 4\nvalue = [4, 0]"] ;
1145 -> 1161 ;
1162 [label="X[2] <= -0.161\ngini = 0.239\nsamples = 151\nvalue = [130, 21]"] ;
996 -> 1162 ;
1163 [label="X[2] <= -0.181\ngini = 0.382\nsamples = 35\nvalue = [26, 9]"] ;
1162 -> 1163 ;
1164 [label="X[0] <= 0.078\ngini = 0.293\nsamples = 28\nvalue = [23, 5]"] ;
1163 -> 1164 ;
1165 [label="gini = 0.0\nsamples = 9\nvalue = [9, 0]"] ;
1164 -> 1165 ;
1166 [label="X[2] <= -0.231\ngini = 0.388\nsamples = 19\nvalue = [14, 5]"] ;
1164 -> 1166 ;
1167 [label="X[0] <= 0.099\ngini = 0.5\nsamples = 8\nvalue = [4, 4]"] ;
1166 -> 1167 ;
1168 [label="X[2] <= -0.231\ngini = 0.49\nsamples = 7\nvalue = [4, 3]"] ;
1167 -> 1168 ;
1169 [label="X[0] <= 0.085\ngini = 0.444\nsamples = 6\nvalue = [4, 2]"] ;
1168 -> 1169 ;
1170 [label="X[2] <= -0.244\ngini = 0.5\nsamples = 4\nvalue = [2, 2]"] ;
1169 -> 1170 ;
1171 [label="gini = 0.0\nsamples = 1\nvalue = [1, 0]"] ;
1170 -> 1171 ;
1172 [label="X[2] <= -0.241\ngini = 0.444\nsamples = 3\nvalue = [1, 2]"] ;
1170 -> 1172 ;
1173 [label="gini = 0.0\nsamples = 1\nvalue = [0, 1]"] ;
1172 -> 1173 ;
1174 [label="X[2] <= -0.236\ngini = 0.5\nsamples = 2\nvalue = [1, 1]"] ;
1172 -> 1174 ;
1175 [label="gini = 0.0\nsamples = 1\nvalue = [1, 0]"] ;
1174 -> 1175 ;
1176 [label="gini = 0.0\nsamples = 1\nvalue = [0, 1]"] ;
1174 -> 1176 ;
1177 [label="gini = 0.0\nsamples = 2\nvalue = [2, 0]"] ;
1169 -> 1177 ;
1178 [label="gini = 0.0\nsamples = 1\nvalue = [0, 1]"] ;
1168 -> 1178 ;
1179 [label="gini = 0.0\nsamples = 1\nvalue = [0, 1]"] ;
1167 -> 1179 ;
1180 [label="X[0] <= 0.113\ngini = 0.165\nsamples = 11\nvalue = [10, 1]"] ;
1166 -> 1180 ;
1181 [label="gini = 0.0\nsamples = 7\nvalue = [7, 0]"] ;
1180 -> 1181 ;
1182 [label="X[2] <= -0.201\ngini = 0.375\nsamples = 4\nvalue = [3, 1]"] ;
1180 -> 1182 ;
1183 [label="gini = 0.0\nsamples = 2\nvalue = [2, 0]"] ;
1182 -> 1183 ;
1184 [label="X[2] <= -0.195\ngini = 0.5\nsamples = 2\nvalue = [1, 1]"] ;
1182 -> 1184 ;
1185 [label="gini = 0.0\nsamples = 1\nvalue = [0, 1]"] ;
1184 -> 1185 ;
1186 [label="gini = 0.0\nsamples = 1\nvalue = [1, 0]"] ;
1184 -> 1186 ;
1187 [label="X[2] <= -0.172\ngini = 0.49\nsamples = 7\nvalue = [3, 4]"] ;
1163 -> 1187 ;
1188 [label="X[0] <= 0.074\ngini = 0.375\nsamples = 4\nvalue = [1, 3]"] ;
1187 -> 1188 ;
1189 [label="X[2] <= -0.176\ngini = 0.5\nsamples = 2\nvalue = [1, 1]"] ;
1188 -> 1189 ;
1190 [label="gini = 0.0\nsamples = 1\nvalue = [1, 0]"] ;
1189 -> 1190 ;
1191 [label="gini = 0.0\nsamples = 1\nvalue = [0, 1]"] ;
1189 -> 1191 ;
1192 [label="gini = 0.0\nsamples = 2\nvalue = [0, 2]"] ;
1188 -> 1192 ;
1193 [label="X[0] <= 0.067\ngini = 0.444\nsamples = 3\nvalue = [2, 1]"] ;
1187 -> 1193 ;
1194 [label="gini = 0.0\nsamples = 1\nvalue = [0, 1]"] ;
1193 -> 1194 ;
1195 [label="gini = 0.0\nsamples = 2\nvalue = [2, 0]"] ;
1193 -> 1195 ;
1196 [label="X[2] <= -0.038\ngini = 0.185\nsamples = 116\nvalue = [104, 12]"] ;
1162 -> 1196 ;
1197 [label="gini = 0.0\nsamples = 37\nvalue = [37, 0]"] ;
1196 -> 1197 ;
1198 [label="X[2] <= -0.001\ngini = 0.258\nsamples = 79\nvalue = [67, 12]"] ;
1196 -> 1198 ;
1199 [label="X[2] <= -0.02\ngini = 0.494\nsamples = 9\nvalue = [5, 4]"] ;
1198 -> 1199 ;
1200 [label="X[2] <= -0.037\ngini = 0.278\nsamples = 6\nvalue = [5, 1]"] ;
1199 -> 1200 ;
1201 [label="gini = 0.0\nsamples = 1\nvalue = [0, 1]"] ;
1200 -> 1201 ;
1202 [label="gini = 0.0\nsamples = 5\nvalue = [5, 0]"] ;
1200 -> 1202 ;
1203 [label="gini = 0.0\nsamples = 3\nvalue = [0, 3]"] ;
1199 -> 1203 ;
1204 [label="X[0] <= 0.092\ngini = 0.202\nsamples = 70\nvalue = [62, 8]"] ;
1198 -> 1204 ;
1205 [label="X[2] <= 0.269\ngini = 0.109\nsamples = 52\nvalue = [49, 3]"] ;
1204 -> 1205 ;
1206 [label="X[0] <= 0.085\ngini = 0.049\nsamples = 40\nvalue = [39, 1]"] ;
1205 -> 1206 ;
1207 [label="gini = 0.0\nsamples = 30\nvalue = [30, 0]"] ;
1206 -> 1207 ;
1208 [label="X[2] <= 0.125\ngini = 0.18\nsamples = 10\nvalue = [9, 1]"] ;
1206 -> 1208 ;
1209 [label="X[2] <= 0.123\ngini = 0.375\nsamples = 4\nvalue = [3, 1]"] ;
1208 -> 1209 ;
1210 [label="gini = 0.0\nsamples = 3\nvalue = [3, 0]"] ;
1209 -> 1210 ;
1211 [label="gini = 0.0\nsamples = 1\nvalue = [0, 1]"] ;
1209 -> 1211 ;
1212 [label="gini = 0.0\nsamples = 6\nvalue = [6, 0]"] ;
1208 -> 1212 ;
1213 [label="X[2] <= 0.276\ngini = 0.278\nsamples = 12\nvalue = [10, 2]"] ;
1205 -> 1213 ;
1214 [label="gini = 0.0\nsamples = 1\nvalue = [0, 1]"] ;
1213 -> 1214 ;
1215 [label="X[0] <= 0.078\ngini = 0.165\nsamples = 11\nvalue = [10, 1]"] ;
1213 -> 1215 ;
1216 [label="gini = 0.0\nsamples = 9\nvalue = [9, 0]"] ;
1215 -> 1216 ;
1217 [label="X[0] <= 0.085\ngini = 0.5\nsamples = 2\nvalue = [1, 1]"] ;
1215 -> 1217 ;
1218 [label="gini = 0.0\nsamples = 1\nvalue = [0, 1]"] ;
1217 -> 1218 ;
1219 [label="gini = 0.0\nsamples = 1\nvalue = [1, 0]"] ;
1217 -> 1219 ;
1220 [label="X[2] <= 0.051\ngini = 0.401\nsamples = 18\nvalue = [13, 5]"] ;
1204 -> 1220 ;
1221 [label="gini = 0.0\nsamples = 5\nvalue = [5, 0]"] ;
1220 -> 1221 ;
1222 [label="X[2] <= 0.224\ngini = 0.473\nsamples = 13\nvalue = [8, 5]"] ;
1220 -> 1222 ;
1223 [label="X[2] <= 0.063\ngini = 0.469\nsamples = 8\nvalue = [3, 5]"] ;
1222 -> 1223 ;
1224 [label="gini = 0.0\nsamples = 1\nvalue = [0, 1]"] ;
1223 -> 1224 ;
1225 [label="X[2] <= 0.079\ngini = 0.49\nsamples = 7\nvalue = [3, 4]"] ;
1223 -> 1225 ;
1226 [label="gini = 0.0\nsamples = 1\nvalue = [1, 0]"] ;
1225 -> 1226 ;
1227 [label="X[0] <= 0.099\ngini = 0.444\nsamples = 6\nvalue = [2, 4]"] ;
1225 -> 1227 ;
1228 [label="X[2] <= 0.087\ngini = 0.444\nsamples = 3\nvalue = [2, 1]"] ;
1227 -> 1228 ;
1229 [label="gini = 0.0\nsamples = 1\nvalue = [0, 1]"] ;
1228 -> 1229 ;
1230 [label="gini = 0.0\nsamples = 2\nvalue = [2, 0]"] ;
1228 -> 1230 ;
1231 [label="gini = 0.0\nsamples = 3\nvalue = [0, 3]"] ;
1227 -> 1231 ;
1232 [label="gini = 0.0\nsamples = 5\nvalue = [5, 0]"] ;
1222 -> 1232 ;
1233 [label="X[0] <= 0.211\ngini = 0.452\nsamples = 214\nvalue = [140, 74]"] ;
995 -> 1233 ;
1234 [label="X[2] <= -0.087\ngini = 0.32\nsamples = 45\nvalue = [9, 36]"] ;
1233 -> 1234 ;
1235 [label="X[0] <= 0.141\ngini = 0.465\nsamples = 19\nvalue = [7, 12]"] ;
1234 -> 1235 ;
1236 [label="X[2] <= -0.175\ngini = 0.375\nsamples = 8\nvalue = [6, 2]"] ;
1235 -> 1236 ;
1237 [label="X[2] <= -0.207\ngini = 0.5\nsamples = 4\nvalue = [2, 2]"] ;
1236 -> 1237 ;
1238 [label="gini = 0.0\nsamples = 2\nvalue = [2, 0]"] ;
1237 -> 1238 ;
1239 [label="gini = 0.0\nsamples = 2\nvalue = [0, 2]"] ;
1237 -> 1239 ;
1240 [label="gini = 0.0\nsamples = 4\nvalue = [4, 0]"] ;
1236 -> 1240 ;
1241 [label="X[0] <= 0.201\ngini = 0.165\nsamples = 11\nvalue = [1, 10]"] ;
1235 -> 1241 ;
1242 [label="gini = 0.0\nsamples = 6\nvalue = [0, 6]"] ;
1241 -> 1242 ;
1243 [label="X[2] <= -0.18\ngini = 0.32\nsamples = 5\nvalue = [1, 4]"] ;
1241 -> 1243 ;
1244 [label="X[2] <= -0.221\ngini = 0.5\nsamples = 2\nvalue = [1, 1]"] ;
1243 -> 1244 ;
1245 [label="gini = 0.0\nsamples = 1\nvalue = [0, 1]"] ;
1244 -> 1245 ;
1246 [label="gini = 0.0\nsamples = 1\nvalue = [1, 0]"] ;
1244 -> 1246 ;
1247 [label="gini = 0.0\nsamples = 3\nvalue = [0, 3]"] ;
1243 -> 1247 ;
1248 [label="X[2] <= 0.177\ngini = 0.142\nsamples = 26\nvalue = [2, 24]"] ;
1234 -> 1248 ;
1249 [label="gini = 0.0\nsamples = 17\nvalue = [0, 17]"] ;
1248 -> 1249 ;
1250 [label="X[2] <= 0.191\ngini = 0.346\nsamples = 9\nvalue = [2, 7]"] ;
1248 -> 1250 ;
1251 [label="gini = 0.0\nsamples = 1\nvalue = [1, 0]"] ;
1250 -> 1251 ;
1252 [label="X[0] <= 0.197\ngini = 0.219\nsamples = 8\nvalue = [1, 7]"] ;
1250 -> 1252 ;
1253 [label="gini = 0.0\nsamples = 6\nvalue = [0, 6]"] ;
1252 -> 1253 ;
1254 [label="X[2] <= 0.204\ngini = 0.5\nsamples = 2\nvalue = [1, 1]"] ;
1252 -> 1254 ;
1255 [label="gini = 0.0\nsamples = 1\nvalue = [0, 1]"] ;
1254 -> 1255 ;
1256 [label="gini = 0.0\nsamples = 1\nvalue = [1, 0]"] ;
1254 -> 1256 ;
1257 [label="X[2] <= -0.138\ngini = 0.349\nsamples = 169\nvalue = [131, 38]"] ;
1233 -> 1257 ;
1258 [label="X[0] <= 0.219\ngini = 0.18\nsamples = 50\nvalue = [45, 5]"] ;
1257 -> 1258 ;
1259 [label="X[2] <= -0.21\ngini = 0.48\nsamples = 5\nvalue = [2, 3]"] ;
1258 -> 1259 ;
1260 [label="gini = 0.0\nsamples = 2\nvalue = [0, 2]"] ;
1259 -> 1260 ;
1261 [label="X[2] <= -0.192\ngini = 0.444\nsamples = 3\nvalue = [2, 1]"] ;
1259 -> 1261 ;
1262 [label="gini = 0.0\nsamples = 1\nvalue = [1, 0]"] ;
1261 -> 1262 ;
1263 [label="X[2] <= -0.162\ngini = 0.5\nsamples = 2\nvalue = [1, 1]"] ;
1261 -> 1263 ;
1264 [label="gini = 0.0\nsamples = 1\nvalue = [0, 1]"] ;
1263 -> 1264 ;
1265 [label="gini = 0.0\nsamples = 1\nvalue = [1, 0]"] ;
1263 -> 1265 ;
1266 [label="X[0] <= 0.268\ngini = 0.085\nsamples = 45\nvalue = [43, 2]"] ;
1258 -> 1266 ;
